{"triplane_resolution": 4096, "triplane_voxel_size": 0.0009765625, "sparse_grid_resolution": 1024, "sparse_grid_voxel_size": 0.00390625, "range_features": [-7.0, 7.0], "range_density": [-14.0, 14.0], "data_block_size": 16, "atlas_width": 867, "atlas_height": 187, "atlas_depth": 187, "num_slices": 187, "slice_depth": 1, "0_weights": [[-1.0228403806686401, 0.1338627189397812, -0.1801401525735855, -0.6437593102455139, -0.43035629391670227, 3.2415008544921875, 0.6221458315849304, 0.3433607220649719, 1.9265077114105225, -0.26617103815078735, -0.423763245344162, 0.9441653490066528, -1.380935549736023, -0.952599823474884, 4.6212897300720215, -1.2971733808517456], [3.848222017288208, 0.22645443677902222, 0.008196002803742886, 0.20159506797790527, -3.4132838249206543, -3.4977710247039795, 0.8558107614517212, -1.2953159809112549, 5.612189292907715, -0.3642992377281189, -2.097076177597046, -0.4126521050930023, 2.61826229095459, 5.148897171020508, -6.821923732757568, 5.899085998535156], [3.066643476486206, -0.11675060540437698, 0.32096806168556213, 0.08857248723506927, -1.9232895374298096, -13.400979042053223, 6.067159652709961, -14.366259574890137, -2.3574044704437256, -0.3476211428642273, -20.904983520507812, 9.759212493896484, -0.060743384063243866, -1.481235384941101, 3.869563579559326, -3.5414366722106934], [0.9823487997055054, 0.18941889703273773, -0.3356795608997345, -0.514861524105072, 0.9471901655197144, -0.07187463343143463, 0.19259682297706604, 0.1248682364821434, 1.9255762100219727, -0.5266338586807251, 0.12337374687194824, -0.6840317249298096, 1.0201339721679688, 0.8678199052810669, 0.19197750091552734, -0.573580801486969], [-1.0714834928512573, -0.29893630743026733, 0.023732000961899757, -0.2535855770111084, -1.0318671464920044, -0.6982207298278809, -1.9750584363937378, -0.3929966688156128, -0.6607645153999329, -0.565743088722229, 0.1263248324394226, -0.6924561262130737, 0.08949897438287735, -0.5937831997871399, -0.2680198848247528, 0.46609964966773987], [0.22768236696720123, 0.013623352162539959, 0.1754552721977234, -0.11091051250696182, 0.019381452351808548, 0.7721619606018066, -0.18194566667079926, -0.4244594871997833, -0.5941436886787415, -0.15780101716518402, -0.08576497435569763, 0.9387133717536926, 1.3345228433609009, 0.3463814854621887, 0.20109228789806366, 0.29867830872535706], [0.7150514721870422, 0.11208706349134445, -0.40100884437561035, -0.18069753050804138, 1.038305640220642, 0.2776680290699005, 1.3788950443267822, 0.6766712665557861, 0.204606831073761, -0.4023473858833313, -0.08732398599386215, 0.9787290692329407, 0.9186784029006958, 0.9510778188705444, 0.46396109461784363, 0.1913347989320755], [-0.4913853108882904, 0.2665424346923828, -0.1574399173259735, 0.07355086505413055, 0.08896231651306152, 0.10664156824350357, 0.04296816140413284, -0.5811973214149475, 0.07950840145349503, -0.037025537341833115, 0.1935860514640808, 0.0590449795126915, 0.09183870255947113, 0.3370956480503082, 0.0758029967546463, 0.3587709963321686], [0.11234872788190842, 0.060801032930612564, 0.21593348681926727, -0.15769492089748383, 0.05036121606826782, 0.24815960228443146, -0.267471045255661, -0.09564976394176483, -0.1895841509103775, 0.01630636304616928, 0.19716548919677734, 0.409349650144577, -0.16317912936210632, -0.06085733324289322, -0.07554921507835388, 0.24685095250606537], [0.17410880327224731, 0.3441917300224304, 0.18333570659160614, 0.34089553356170654, 0.08987759798765182, 0.3956313133239746, -0.00747638987377286, 0.5451399087905884, 0.49709054827690125, 0.18619807064533234, 0.11104866117238998, -0.47268205881118774, -0.026403231546282768, -0.2927114963531494, -0.29407137632369995, -0.281371146440506], [-0.07040079683065414, -0.24786441028118134, -0.3954642117023468, -0.11564575135707855, -0.42874377965927124, -0.06811151653528214, -0.08107394725084305, -0.2868039309978485, -0.2732551395893097, 0.5379279851913452, 0.44865450263023376, 0.05990228429436684, -0.1715860664844513, -0.3383598327636719, -0.0009742930415086448, -0.21570254862308502], [-0.31998875737190247, -0.0232387762516737, -0.4537026286125183, 0.16515177488327026, 0.43326669931411743, 0.26762324571609497, -0.08161386847496033, -0.4427989423274994, 0.20481576025485992, -0.40236544609069824, -0.10047637671232224, -0.20755183696746826, 0.24486543238162994, 0.017313288524746895, 0.03075740858912468, 0.06899446249008179], [-0.5053265690803528, 0.24412047863006592, 0.10919483006000519, -0.07245945185422897, -0.5005883574485779, -0.0365302711725235, 0.21163511276245117, 0.3320368826389313, 0.141294464468956, 0.4504738450050354, 0.20995861291885376, -0.21298876404762268, 0.5545006394386292, 0.17321044206619263, 0.03555759787559509, 0.3398951590061188], [0.2911061644554138, -0.12664349377155304, 0.2615514099597931, 0.14978845417499542, 0.2160414457321167, 0.12175297737121582, -0.14381279051303864, 0.07048269361257553, 0.0889478251338005, -0.19118797779083252, -0.0915929302573204, -0.09357387572526932, 0.05480475723743439, -0.12093355506658554, -0.0941217914223671, -0.09349946677684784], [0.09494879841804504, 0.12972766160964966, -0.06696556508541107, 0.11483704298734665, -0.2816180884838104, -0.3134245276451111, 0.1842305064201355, -0.2895875573158264, -0.022137034684419632, 0.0782427042722702, -0.05871255695819855, -0.10555395483970642, 0.001313850050792098, 0.10564245283603668, 0.04616422578692436, -0.27328622341156006], [0.23243142664432526, 0.20740333199501038, 0.11870486289262772, 0.12839873135089874, -0.20203089714050293, 0.2691185772418976, -0.08887834846973419, 0.26759177446365356, 0.37559953331947327, 0.025644056499004364, -0.3963196277618408, -0.21171283721923828, 0.10292594879865646, -0.013024612329900265, 0.08781781792640686, 0.24001604318618774], [-0.05567481368780136, -0.27806994318962097, -0.02437579445540905, 0.20511800050735474, -0.039512813091278076, -0.026463231071829796, 0.051642805337905884, -0.11290168017148972, -0.015497787855565548, 0.05275625362992287, 0.034818220883607864, 0.006723123602569103, -0.03376203775405884, 0.03349387273192406, 0.012333875522017479, 0.01435451302677393], [-0.014130077324807644, 0.21007993817329407, -0.31285783648490906, 0.1361250877380371, 0.06229013577103615, 0.04886118695139885, -0.004381120204925537, 0.2711382806301117, -0.009349777363240719, 0.18965616822242737, 0.02943330630660057, 0.03292830288410187, -0.01842619478702545, -0.03266153857111931, -0.011707889847457409, 0.06132190674543381], [0.1628551185131073, 0.34295010566711426, 0.2580302953720093, 0.013403902761638165, -0.2972375154495239, 0.04164204001426697, -0.5577850341796875, 0.11822328716516495, 0.5761533379554749, -0.21978336572647095, 0.008341529406607151, -0.15817315876483917, -0.11868561059236526, -0.07582958787679672, -0.21044161915779114, -0.13400062918663025], [-0.007279242854565382, -0.28279489278793335, 0.027376146987080574, -0.2201993763446808, 0.011193905025720596, 0.01905922405421734, 0.01439558994024992, -0.01822868548333645, 0.005191151052713394, -0.12290185689926147, -0.024632686749100685, 0.005988055374473333, 0.008062664419412613, 0.004817367065697908, 0.0013494618469849229, 0.004249397665262222], [-0.010500742122530937, 0.12409572303295135, -0.24086131155490875, -0.26018837094306946, -0.003780659520998597, 0.0005135274841450155, -0.002244382631033659, -0.05171975493431091, -0.006710611749440432, 0.022845998406410217, -0.0007403162308037281, -0.0034355646930634975, -0.00021405772713478655, 0.0044858395121991634, -0.0012037181295454502, -0.007967038080096245], [0.3263646364212036, 0.026172330603003502, 0.38755002617836, -0.05970767140388489, -0.09404005855321884, 0.05962105840444565, 0.006167721934616566, 0.3445090651512146, 0.32259297370910645, 0.2295791506767273, -0.2379043996334076, -0.28082960844039917, -0.054187044501304626, -0.03713720291852951, -0.11750689893960953, -0.196199432015419], [0.29317349195480347, -0.33439168334007263, -0.48186492919921875, -0.34613627195358276, -0.2102406620979309, -0.3183594048023224, 0.42582574486732483, 0.14878281950950623, 0.098739393055439, -0.20654451847076416, 0.006528038997203112, -0.08362555503845215, 0.1519358903169632, 0.18145504593849182, -0.1681225746870041, 0.006296622566878796], [-0.15132929384708405, 0.21930478513240814, -0.21682852506637573, -0.4216764569282532, 0.0958886593580246, 0.20732136070728302, -0.14318984746932983, -0.14584878087043762, 0.08857827633619308, -0.14915961027145386, 0.31255921721458435, -0.176446333527565, -0.6328725814819336, 0.36073771119117737, 0.11302972584962845, 0.40744826197624207], [0.3328813314437866, -0.4069998264312744, -0.034646883606910706, -0.4428071081638336, 0.07119130343198776, 0.1466248333454132, -0.15412959456443787, 0.37690097093582153, 0.030507713556289673, 0.09065516293048859, -0.2850135564804077, 0.00543120875954628, -0.3890978991985321, 0.16050542891025543, 0.16249968111515045, 0.3571341931819916], [0.1753290742635727, 0.029286038130521774, -0.056306060403585434, -0.024747751653194427, 0.32783541083335876, 0.24430079758167267, -0.409374475479126, -0.3537180423736572, 0.26819851994514465, -0.09889361262321472, 0.1769358366727829, 0.1272004246711731, 0.005907159298658371, -0.24048084020614624, -0.032936014235019684, -0.04610453546047211], [0.5609727501869202, -0.0014063159469515085, -0.2765912413597107, 0.021828381344676018, 0.19169656932353973, -0.44947880506515503, 0.1974373608827591, 0.09507766366004944, 0.05655694380402565, 0.1946379393339157, -0.10699254274368286, 0.16208460927009583, 0.23162777721881866, -0.13866528868675232, -0.06013010814785957, -0.08530570566654205], [-0.45304280519485474, -0.3803744316101074, -0.22205577790737152, 0.01277256477624178, 0.3833490312099457, 0.3933926224708557, 0.4667453467845917, 0.40831390023231506, -0.019459960982203484, -0.5231031775474548, -0.35577520728111267, -0.10617243498563766, -0.5771093964576721, -0.08816517889499664, 0.0889781191945076, 0.18857063353061676], [0.021802574396133423, -0.061051540076732635, 0.3251676559448242, 0.2859124541282654, 0.017310841009020805, -0.04145793244242668, 0.136308491230011, -0.09176149219274521, -0.10508901625871658, 0.21952073276042938, -0.043382786214351654, -0.02503693848848343, -0.002840748056769371, 0.07022344321012497, 0.023082174360752106, 0.032195545732975006], [-0.13733479380607605, -0.014689340256154537, 0.2079436182975769, -0.16835768520832062, -0.011920338496565819, 0.1725071370601654, -0.16493940353393555, -0.00825371965765953, 0.02773336134850979, -0.27083125710487366, 0.06332661211490631, 0.011057274416089058, 0.004735926166176796, -0.014388741925358772, -0.007393087260425091, -0.021288378164172173], [-0.1578885018825531, -0.13176481425762177, 0.28300175070762634, -0.08983715623617172, -0.599879264831543, 0.6619313955307007, 0.45467454195022583, 0.792355477809906, 0.014988705515861511, 0.5205571055412292, -1.0342187881469727, -0.6132116317749023, -0.15785104036331177, -0.3625468313694, -0.18789760768413544, -0.19692043960094452], [-0.0060449205338954926, 0.05177732929587364, 0.003960702568292618, -0.0056933630257844925, -0.007885506376624107, 0.014482581056654453, 0.003307604230940342, 0.05601303651928902, -0.00011525750596774742, -0.08886146545410156, 0.010168763808906078, 0.002615581965073943, -0.0020375961903482676, -0.008108479902148247, -0.004048052243888378, 0.006073734723031521], [0.014580014161765575, 0.09664744138717651, 0.20592902600765228, -0.20448996126651764, 0.006169045343995094, -0.03841007128357887, 0.021514207124710083, -0.015993857756257057, -0.003644064534455538, -0.12237584590911865, -0.012640255503356457, -0.009847458451986313, 0.0011894444469362497, -0.001961049623787403, -0.0006984208011999726, 0.003548340406268835], [0.03347516804933548, -0.02474484220147133, 0.4084107279777527, -0.19298183917999268, -0.07786455750465393, 0.7364887595176697, -0.06984378397464752, 0.4919595420360565, -0.13139738142490387, -0.15837456285953522, -0.551103413105011, -0.07016187161207199, -0.06017262488603592, -0.13669782876968384, 0.07613768428564072, 0.20941980183124542]], "1_weights": [[0.029881564900279045, -0.07365233451128006, -0.2326800674200058, -0.3970409035682678, 0.04609179496765137, 0.4707135856151581, -0.15426383912563324, -1.256687045097351, -0.8017241358757019, -0.11762470006942749, -0.1866040676832199, -0.2800295948982239, -0.3066283166408539, 1.1514546871185303, 0.05038754642009735, -0.09758827090263367], [0.29619085788726807, -0.4619652330875397, -0.23565827310085297, -0.3966926336288452, 0.42603838443756104, -0.21470585465431213, -0.5450190901756287, -0.3668738305568695, -0.1840362399816513, -0.4110826849937439, 0.019398363307118416, 0.5536813139915466, 0.00294498517177999, 0.09239651262760162, -0.20042027533054352, -0.09952649474143982], [-0.6546798348426819, -0.1377626359462738, 0.2770930528640747, -0.09609006345272064, -0.2947790026664734, 0.16340100765228271, -0.1500648409128189, 0.5061466693878174, -0.36474454402923584, 0.31053265929222107, 0.3475697636604309, -0.3690238296985626, -0.44880810379981995, -0.30020561814308167, 0.29266440868377686, 0.33884721994400024], [-0.3129609227180481, -0.13991014659404755, 0.3175840377807617, 0.14551185071468353, 0.4064726233482361, -0.10120390355587006, -0.48775821924209595, -0.5525494813919067, 0.3707315921783447, 0.19611357152462006, -0.22517558932304382, -0.5626978278160095, 0.27703002095222473, 0.4887087643146515, 0.12496873736381531, -0.606816291809082], [0.17286361753940582, -0.08939416706562042, 0.05957527458667755, 0.3101658225059509, -0.2677396833896637, 0.28656405210494995, -0.26551181077957153, -0.28031620383262634, -0.058232564479112625, 0.32775968313217163, -0.19015513360500336, 0.0833151713013649, -0.09314878284931183, -0.9984787106513977, -0.015213483944535255, 0.11783795803785324], [0.030213864520192146, 0.011183897964656353, 1.0550615787506104, 0.3268817067146301, 0.11300607025623322, 0.07318710535764694, 0.36303359270095825, 0.0918000191450119, 0.022762738168239594, -0.016767846420407295, 0.26760053634643555, -0.4428112506866455, -0.2153034210205078, 0.20623384416103363, 0.03911995887756348, -0.04554140567779541], [0.025921396911144257, 0.11810095608234406, 0.4714283347129822, 0.15834885835647583, 0.41025128960609436, 0.1695229709148407, -0.4731625020503998, -0.1349281519651413, 0.1834951788187027, -0.3416447341442108, -0.4226292073726654, -0.6564937829971313, -0.5874463319778442, 0.35935601592063904, -0.11146830767393112, -0.3859671354293823], [-0.19342446327209473, -0.1211303174495697, -0.05775115266442299, -0.2349775731563568, -0.04562177509069443, -0.5046440362930298, 0.04239640012383461, 0.08077596127986908, 0.0007707803742960095, -0.009958009235560894, 0.18083935976028442, 0.20957650244235992, -0.42162683606147766, -0.019335737451910973, -0.10688848793506622, 0.3125796616077423], [-0.07326147705316544, -0.11848121136426926, -0.6816086769104004, -0.23553422093391418, 0.062247246503829956, -0.2578246593475342, -0.24239672720432281, 0.21081911027431488, -0.7578627467155457, -1.4203577041625977, 0.18855421245098114, -0.15831036865711212, -0.17772485315799713, 0.2053508162498474, 0.4133129119873047, 0.2408779263496399], [0.2984152138233185, -0.2861332297325134, -0.5018692016601562, -0.15132328867912292, 0.4790183901786804, -0.3006792366504669, -0.08394870162010193, 0.3566552996635437, 0.16399382054805756, -0.014092872850596905, -0.07204198837280273, 0.02545427903532982, 0.2688501477241516, 0.5274930596351624, -0.016724031418561935, -0.028085552155971527], [0.427937775850296, 0.39137983322143555, 0.8383822441101074, -0.49448418617248535, 0.020552659407258034, 0.9103801846504211, -0.43383359909057617, -1.772727131843567, 0.5835242867469788, -0.020581746473908424, -0.29794541001319885, 0.20450283586978912, 0.00884141493588686, -1.406718134880066, 0.8030875325202942, -0.36730408668518066], [0.03994670882821083, -0.18945230543613434, -0.6256296634674072, -0.7079854607582092, -0.09136127680540085, 0.48812058568000793, 0.6896296143531799, -0.2607904374599457, -0.38050034642219543, 0.29373523592948914, 0.03583354875445366, -0.627862811088562, -0.5287595391273499, 0.7783573269844055, 0.01759493723511696, -0.48405778408050537], [0.06761965155601501, 0.04445329308509827, 1.0668787956237793, 0.0616767555475235, -0.1266491562128067, 0.40417295694351196, -0.513608455657959, 1.4379441738128662, 0.08858291059732437, -0.8475431203842163, -0.004458583891391754, -0.6103979349136353, 0.14119336009025574, -0.03090427815914154, 0.2782120704650879, 0.10289280116558075], [-0.127058744430542, 0.3893367350101471, -0.08414547890424728, 0.1275440752506256, 0.5562170743942261, 0.3224894404411316, 0.011159772053360939, 0.46181830763816833, 0.47440245747566223, -0.6559860706329346, -0.6790294051170349, 0.37605252861976624, 0.2500900328159332, -0.6493915319442749, -0.39548182487487793, -0.16005299985408783], [1.1874151229858398, 0.3148012161254883, -0.48829859495162964, -0.8021143078804016, -1.5669708251953125, 0.09684401750564575, 0.029362523928284645, 0.32301610708236694, 0.29650363326072693, 0.7722730040550232, 0.5517408847808838, -0.4778958559036255, -0.5817933082580566, -0.30584272742271423, 0.5347562432289124, -0.5580310225486755], [0.015047614462673664, 0.4142228960990906, 0.3277457058429718, -0.30802735686302185, 0.5018095374107361, 0.223184272646904, 0.6714569330215454, -1.3356753587722778, 0.2060869187116623, -0.39227062463760376, -0.787156343460083, -0.5992377400398254, -0.19586727023124695, -0.3770747780799866, -0.09780123829841614, -0.2332618683576584]], "2_weights": [[-0.587212324142456, 0.030731935054063797, 0.0012978697195649147], [0.04502950236201286, -0.18017560243606567, 0.20546409487724304], [0.34944355487823486, 0.3418172001838684, 0.35874858498573303], [-0.26799649000167847, 0.2799532115459442, -0.5701441168785095], [-0.19165359437465668, -0.07650604099035263, -0.007627024780958891], [-0.20396335422992706, -0.3935779631137848, -0.4674704670906067], [0.30397459864616394, 0.28468427062034607, 0.3069951832294464], [0.9513706564903259, 0.30064383149147034, 0.1396404355764389], [-0.15481121838092804, -0.16701571643352509, -0.25647273659706116], [0.6960723996162415, 0.7722998261451721, 0.660131573677063], [-0.5928167700767517, -0.3502129316329956, -0.3090844750404358], [-0.34759390354156494, 0.035860076546669006, 0.17857372760772705], [-0.21252131462097168, 0.2838878035545349, 0.06823331862688065], [-0.45591628551483154, -0.44085055589675903, -0.44282326102256775], [-0.9213761687278748, 0.03383904695510864, 0.12351787090301514], [0.3537508547306061, 0.16375327110290527, 0.07664132118225098]], "0_bias": [0.06067444011569023, -0.08630843460559845, -0.07738766819238663, -0.1540466845035553, 0.07048368453979492, -0.0420975461602211, 0.18253196775913239, 0.1686028093099594, -0.23503215610980988, -0.16470491886138916, -0.025713199749588966, 0.04646262526512146, -0.23717346787452698, -0.07149090617895126, 0.07573872804641724, -0.04632824659347534], "1_bias": [0.1929837316274643, -0.36451256275177, 0.10959784686565399, -0.1729794591665268, -0.020694874227046967, 0.016064878553152084, 0.3169480860233307, -0.8423251509666443, 0.44494038820266724, 0.5648152232170105, 0.2410964071750641, -0.21307766437530518, -0.35649123787879944, -0.2876289188861847, -1.6621474027633667, -0.2644084393978119], "2_bias": [-0.024007149040699005, -0.2148549109697342, -0.214180126786232]}