{"triplane_resolution": 4096, "triplane_voxel_size": 0.0009765625, "sparse_grid_resolution": 1024, "sparse_grid_voxel_size": 0.00390625, "range_features": [-7.0, 7.0], "range_density": [-14.0, 14.0], "data_block_size": 16, "atlas_width": 1479, "atlas_height": 935, "atlas_depth": 17, "num_slices": 17, "slice_depth": 1, "0_weights": [[-0.5921967625617981, 0.06292527914047241, -0.22584128379821777, -3.6097042560577393, 1.23943030834198, -0.11882030963897705, -1.57817542552948, -0.22804445028305054, 1.5007835626602173, 0.537668764591217, -0.13018754124641418, 3.314753532409668, -0.22671400010585785, -1.1971415281295776, 2.34407377243042, -0.008136158809065819], [2.0925865173339844, 0.21680118143558502, 0.03626886382699013, -3.453230381011963, -3.796876907348633, 0.19533312320709229, -1.9507629871368408, -0.19345584511756897, 3.9727535247802734, -4.070262908935547, -0.1011585146188736, 0.1941343992948532, 2.096871852874756, 2.7678236961364746, -1.9068958759307861, 3.021312713623047], [2.676081657409668, -0.13322770595550537, 0.4179471731185913, 1.4110829830169678, -2.3136115074157715, 2.6154448986053467, 4.008501052856445, -0.24279795587062836, -3.609351396560669, -0.7777177691459656, 0.7881438136100769, 1.3569858074188232, 4.28322172164917, -0.4944717288017273, 1.658322811126709, 3.1405506134033203], [0.7275374531745911, 0.24054160714149475, -0.39562147855758667, -0.8824225664138794, -0.8817366361618042, -1.5599333047866821, 0.21631968021392822, 0.14990811049938202, 1.0703952312469482, 0.45944640040397644, 2.269254684448242, 0.498958945274353, 0.56795334815979, 0.2650640308856964, 0.23187024891376495, 1.1971793174743652], [-0.9808264970779419, -0.208998441696167, 0.18088485300540924, 0.33777135610580444, -0.9536943435668945, 1.828324317932129, 1.254460334777832, -0.4184280335903168, -0.03272472321987152, 0.769595742225647, -2.1114790439605713, -0.5890551209449768, -0.5363807082176208, 0.14694876968860626, 0.3403661251068115, 0.5008277297019958], [0.945121705532074, -0.09752277284860611, 0.24485726654529572, 1.4947526454925537, -0.3975673019886017, 0.38977065682411194, -3.750418186187744, -0.26037055253982544, 1.1714483499526978, -0.2161254584789276, -1.9083144664764404, 1.029591679573059, 1.1271905899047852, 0.4195001423358917, 0.07367761433124542, 0.5408570170402527], [-0.5984528660774231, 0.12407580763101578, -0.4107270836830139, -4.206419467926025, 0.44003137946128845, -1.6734950542449951, 0.569481611251831, 0.14919441938400269, -0.08086147159337997, -0.5288808941841125, 2.4503371715545654, 1.4478470087051392, -1.8408560752868652, 0.6863824725151062, 0.08578550815582275, -2.339956760406494], [-0.21228313446044922, 0.32363393902778625, -0.08303409069776535, -0.035791847854852676, 0.5104976296424866, 0.001496108598075807, -0.1765100359916687, -0.36570754647254944, 0.1830240935087204, -0.23708172142505646, -0.00953352078795433, 0.19101987779140472, 0.1547277718782425, 0.41887956857681274, -0.22015517950057983, 0.09570661187171936], [0.14491243660449982, 0.11051998287439346, 0.2138623148202896, -0.2652139663696289, -0.03404118865728378, -0.09465799480676651, -0.113686203956604, 0.15913033485412598, -0.1373988687992096, -0.01218358427286148, 0.09103858470916748, 0.26930102705955505, -0.2210720032453537, 0.18671700358390808, -0.007946406491100788, -0.02050740458071232], [0.15996554493904114, 0.3999938666820526, 0.16640590131282806, 0.17190228402614594, 0.19245101511478424, 0.28414684534072876, 0.00206047878600657, 0.3528798222541809, 0.688565194606781, 0.08351635932922363, 0.30091533064842224, -0.38775962591171265, -0.17324227094650269, -0.2056354582309723, -0.20808357000350952, -0.2105017751455307], [0.09002409875392914, -0.1873501092195511, -0.3230668008327484, -0.20553605258464813, -0.18643413484096527, -0.13039752840995789, -0.15086376667022705, -0.08997107297182083, -0.2168920636177063, 0.36763453483581543, 0.279484361410141, 0.13375166058540344, -0.14047659933567047, -0.27671387791633606, -0.11139167100191116, -0.3728313446044922], [-0.2946091592311859, 0.025847112759947777, -0.4499009847640991, 0.08380209654569626, 0.370538592338562, 0.0984463095664978, 0.012565425597131252, -0.16243784129619598, 0.23465687036514282, -0.3897552788257599, -0.15240007638931274, -0.285818874835968, 0.20925329625606537, 0.11205950379371643, 0.054799798876047134, -0.06186085566878319], [-0.5225359797477722, 0.3004905581474304, 0.09175672382116318, -0.25562989711761475, -0.39744243025779724, -0.1585562825202942, 0.23593991994857788, 0.17013518512248993, 0.28831684589385986, 0.3411332964897156, 0.39828214049339294, -0.11954998970031738, 0.40712979435920715, 0.2619518041610718, 0.11373737454414368, 0.43031197786331177], [0.13755246996879578, -0.054871078580617905, 0.3279011845588684, 0.10903865844011307, -0.03737827390432358, 0.18547698855400085, 0.1852627843618393, 0.20491895079612732, -0.000364895211532712, -0.2840096652507782, -0.17296016216278076, -0.22426186501979828, 0.012530761770904064, -0.11719419807195663, 0.292087584733963, 0.047511324286460876], [0.09514232724905014, 0.17647835612297058, -0.044984158128499985, 0.09799285233020782, -0.28258082270622253, 0.05660285800695419, 0.09966666251420975, 0.05013313144445419, -0.06658656150102615, 0.1972307413816452, 0.04275514557957649, -0.004221118986606598, 0.030365830287337303, -0.2394813746213913, -0.060873694717884064, -0.004189206287264824], [0.20303446054458618, 0.2663932740688324, 0.10010844469070435, -0.08815808594226837, -0.09810520708560944, 0.12145406007766724, -0.016150765120983124, 0.19063930213451385, 0.38347822427749634, -0.10439342260360718, -0.21577154099941254, -0.09518350660800934, -0.04850902408361435, 0.07815927267074585, 0.1439521610736847, 0.3911498486995697], [-0.024039944633841515, -0.15305010974407196, 0.01981041394174099, -0.00043326994637027383, -0.035362694412469864, -0.01713055931031704, -0.03418831154704094, -0.33283793926239014, 0.002796523505821824, 0.02946675568819046, 0.027239682152867317, 0.03790616989135742, -0.009135116823017597, 0.032450899481773376, -0.0396861769258976, 0.026983551681041718], [-0.011991207487881184, 0.18765918910503387, -0.1318422108888626, -0.01717187464237213, 0.07971084862947464, -0.004545132163912058, -0.028541818261146545, -0.14491364359855652, 0.0096983527764678, -0.005656995344907045, -0.0016622374532744288, 0.0012170489644631743, -0.015236672013998032, 0.05745208263397217, 0.02682442218065262, 0.05006597936153412], [0.09482506662607193, 0.26581504940986633, 0.2465210109949112, -0.25742125511169434, -0.21816019713878632, -0.09509246051311493, -0.16464105248451233, 0.21294018626213074, 0.30535587668418884, -0.4661833345890045, 0.1363178789615631, 0.07804199308156967, -0.2906970977783203, -0.10068365931510925, -0.2306237667798996, 0.8530263304710388], [0.0015828456962481141, -0.32059335708618164, 0.010019971057772636, -0.0012211828725412488, 0.021695347502827644, 0.014396262355148792, -0.0024918750859797, 0.15220817923545837, 0.0004412326670717448, 0.012288091704249382, 0.0047209179028868675, -0.00024843422579579055, 0.0024126945063471794, -0.0032327785156667233, -0.005999763496220112, -0.014980187639594078], [-0.0024115261621773243, 0.07388602942228317, -0.31507474184036255, 0.0023100131656974554, -0.009674455970525742, -0.017929891124367714, 0.004022782668471336, 0.3049560487270355, -0.0007294329698197544, 0.0014986565802246332, 1.9984727259725332e-06, -0.003933544736355543, 0.0015973725821822882, -0.007293435279279947, 0.0017574767116457224, -0.021833546459674835], [0.15214061737060547, 0.0725545808672905, 0.21911831200122833, -0.1029609814286232, -0.16813009977340698, 0.10812410712242126, -0.07142215222120285, 0.09401030093431473, 0.07004119455814362, -0.10128168016672134, -0.012734953314065933, 0.0534449964761734, 0.005493453703820705, -0.08963869512081146, -0.1410587728023529, 0.2975611388683319], [0.4289416968822479, -0.3771718740463257, -0.4471023678779602, -0.08362400531768799, -0.26635250449180603, -0.4774722456932068, 0.35970547795295715, 0.015199653804302216, 0.1373530924320221, -0.011470242403447628, -0.013136925175786018, -0.09952018409967422, 0.37607789039611816, 0.23357924818992615, -0.1892591267824173, -0.015266944654285908], [-0.049431271851062775, 0.16100634634494781, -0.18314971029758453, -0.17236357927322388, 0.11195472627878189, 0.128780335187912, -0.29496046900749207, -0.39958861470222473, 0.16490159928798676, 0.02465062029659748, 0.33803844451904297, -0.20584459602832794, -0.3978787064552307, 0.38154107332229614, 0.036501556634902954, 0.34296393394470215], [0.4996848702430725, -0.45756837725639343, 0.001583632081747055, -0.17682716250419617, 0.05432899296283722, -0.01033138856291771, -0.33963096141815186, 0.11038666218519211, 0.2393631786108017, 0.3150017261505127, -0.21756337583065033, -0.017234431579709053, -0.13585764169692993, 0.21302185952663422, 0.1334274262189865, 0.2654200494289398], [0.36744096875190735, 0.03461221605539322, -0.023245571181178093, 0.2191046178340912, 0.13254834711551666, -0.1552322655916214, -0.15060129761695862, -0.049235712736845016, 0.0349099300801754, 0.007348828017711639, -0.05648574233055115, 0.08967654407024384, 0.17697174847126007, -0.14885008335113525, -0.05324443429708481, 0.08563493937253952], [0.5083346366882324, -0.05364251881837845, -0.3774094879627228, 0.20560123026371002, 0.2750861644744873, -0.16481150686740875, 0.014582249335944653, -0.37220486998558044, -0.03731900081038475, 0.2951561212539673, -0.10250448435544968, 0.14507491886615753, 0.44995760917663574, -0.20898286998271942, -0.24115121364593506, -0.29482364654541016], [-0.18992206454277039, -0.2941976487636566, -0.1974036544561386, 0.3081246018409729, 0.40267691016197205, 0.10053887963294983, -0.0065854392014443874, 0.08776979893445969, 0.4337828755378723, -0.1366204470396042, -0.08372289687395096, -0.21649831533432007, -0.2910575568675995, 0.05247039347887039, 0.13577008247375488, -0.9051092863082886], [-0.0442783497273922, 0.024776719510555267, 0.38091710209846497, -0.014849838800728321, 0.018705574795603752, 0.06021861732006073, -0.019351497292518616, 0.10870317369699478, -0.004354478325694799, 0.047829098999500275, 0.01469736360013485, -0.006857409607619047, -0.019240520894527435, 0.00779023626819253, -0.0055404240265488625, -0.007511056959629059], [-0.05252679064869881, -0.06916354596614838, 0.17639625072479248, -0.002409529173746705, -0.10811229050159454, 0.01696484163403511, 0.00841415487229824, 0.30778968334198, 0.016000716015696526, -0.11396841704845428, -0.017451878637075424, -0.023989906534552574, -0.04216667637228966, 0.019486580044031143, 0.06113696098327637, 0.08766289055347443], [0.0639638900756836, -0.0705127865076065, 0.4064173102378845, 0.08719321340322495, -0.42025235295295715, 0.1397087574005127, 0.4240568280220032, 0.13178901374340057, 0.38053062558174133, 0.6556194424629211, -0.2795202136039734, -0.32529088854789734, -0.07782001048326492, -0.06992407888174057, -0.1524248570203781, 0.2167874276638031], [0.0023184374440461397, 0.20173436403274536, 0.006492821499705315, -0.002845895942300558, 0.012256591580808163, -0.0028721634298563004, -0.0008204062469303608, 0.0662812814116478, -0.0031435845885425806, -0.006781591568142176, 0.004069644026458263, -0.001583353616297245, 0.00043440258014015853, 0.002877785824239254, 0.005401928909122944, 0.004630668554455042], [0.003872028086334467, 0.22387337684631348, 0.18954069912433624, -0.005823561456054449, 0.01674310490489006, -0.0003846707404591143, 0.013856361620128155, -0.04331381991505623, -0.0076206098310649395, 0.021455656737089157, 0.0033146440982818604, 0.001534161390736699, -0.0029897077474743128, 0.000196883556782268, -0.0018641413189470768, -0.0009550284594297409], [0.03113076463341713, -0.03807525709271431, 0.3470481336116791, 0.04947704076766968, -0.28263625502586365, 0.06851522624492645, 0.1147536188364029, 0.31034430861473083, 0.17260490357875824, 0.1411759853363037, -0.10658113658428192, -0.1507694125175476, -0.009793728590011597, -0.04218433052301407, -0.041233573108911514, 0.39093565940856934]], "1_weights": [[0.6347824931144714, 0.0456816591322422, -0.1666761040687561, -0.3142155110836029, 0.39401447772979736, 0.596930205821991, -0.42852094769477844, -0.2489788830280304, -0.25549882650375366, -0.27536237239837646, -0.5490973591804504, 0.4831323027610779, -0.3014177083969116, -0.46414417028427124, -0.736585259437561, -0.04611172154545784], [0.2702576518058777, -0.5300412774085999, -0.21920695900917053, -0.3666660487651825, 0.40334051847457886, -0.28809666633605957, -0.433656245470047, -0.36788812279701233, -0.3576708734035492, -0.4369136393070221, -0.042834069579839706, 0.5393400192260742, 0.026313822716474533, 0.007694671396166086, -0.23546114563941956, -0.06845831125974655], [-0.5984911918640137, -0.25494202971458435, 0.16857847571372986, -0.03886440768837929, -0.32266896963119507, 0.2103521078824997, -0.19205240905284882, 0.26081383228302, -0.18016232550144196, 0.31053265929222107, 0.39761221408843994, -0.3808780610561371, -0.38878098130226135, -0.375017911195755, 0.46082186698913574, 0.21294005215168], [-0.03505215421319008, -0.048282794654369354, 0.16010448336601257, 0.12264994531869888, -0.32854795455932617, -0.653647243976593, -0.13037516176700592, -0.6543482542037964, -0.15281955897808075, -0.2519715130329132, -0.24012194573879242, 0.7545596361160278, 0.05739809200167656, 0.28258341550827026, -2.36784291267395, -0.3959510624408722], [-1.0883334875106812, 0.028522338718175888, -0.370036780834198, 0.17143863439559937, -0.31037673354148865, 0.33995792269706726, -0.13633334636688232, -0.5483635663986206, -0.49305248260498047, 0.11623328924179077, 0.06514892727136612, 0.1473730057477951, 0.016759494319558144, -0.07446222007274628, 0.08749406784772873, -0.046358101069927216], [0.06840305775403976, -0.001365024596452713, 0.23992036283016205, 0.17193366587162018, 0.2343166470527649, 0.06972650438547134, 0.1691913604736328, 0.2826642394065857, 0.1571708619594574, -0.501258373260498, -0.11824687570333481, 0.009353537112474442, -0.25433915853500366, 0.21813371777534485, -0.21938911080360413, 0.14802774786949158], [-0.19956088066101074, 0.12469513714313507, -0.3532797694206238, 0.04003572836518288, 0.7477167248725891, 0.3122479021549225, 0.2981448769569397, -0.5971788763999939, -0.7361326217651367, -0.3968867361545563, -0.6181437969207764, -0.23007570207118988, -0.49275144934654236, 0.032347600907087326, 0.88690584897995, -0.4838542640209198], [0.48878002166748047, -0.1531277298927307, 0.4524957835674286, 0.3203916847705841, 0.19037781655788422, -0.1202901154756546, 0.08375512808561325, 0.09726656228303909, 0.5907047986984253, -0.42369458079338074, 0.07065583765506744, 0.4100947976112366, -0.45916318893432617, 0.19190366566181183, 0.46193695068359375, 0.07426566630601883], [-0.05907092243432999, 0.10880235582590103, 0.03705355152487755, -0.4379751682281494, -0.41200974583625793, 0.16837958991527557, -0.10743538290262222, 0.14153270423412323, 0.485617071390152, -0.3583972752094269, 0.22462987899780273, -0.898560106754303, -0.163940891623497, -0.7688767313957214, 0.218746617436409, 1.0151772499084473], [0.04242214933037758, -0.13425582647323608, -0.524541437625885, -0.4578227996826172, -0.20460867881774902, -0.252544105052948, 0.01199146918952465, 0.09883793443441391, 0.2303784191608429, -0.04705183207988739, 0.07752366364002228, -0.2650587260723114, 0.04750033840537071, 0.09254969656467438, -0.13782019913196564, -0.19469358026981354], [-0.6900876760482788, -0.23872651159763336, 0.23948265612125397, -0.466545045375824, -18.979394912719727, -1.1285655498504639, 0.17934641242027283, 0.5424537658691406, -2.4440925121307373, 0.4986828565597534, -0.31228089332580566, -0.39874792098999023, 0.015746988356113434, 0.28526198863983154, 0.6706960201263428, -4.011964321136475], [0.005756129510700703, 0.13524597883224487, -0.7811828851699829, -0.8664627075195312, -0.6489797830581665, 0.3147011697292328, 0.7716085314750671, -0.5969423055648804, -0.674082338809967, -0.3550320863723755, 0.4703937768936157, -0.5272118449211121, -0.6180130243301392, -0.9552749395370483, 0.35910576581954956, -0.5415520071983337], [-0.42096853256225586, -0.15328960120677948, 0.04557209089398384, 0.029807699844241142, 0.38988181948661804, 0.9399639964103699, -0.34034863114356995, -0.5901573300361633, 0.720272421836853, -0.5100336670875549, 0.4973716735839844, -1.5689204931259155, 0.12290019541978836, -0.4612572491168976, 0.6180834174156189, 0.18481940031051636], [-0.17223112285137177, 0.5372871160507202, -0.37067893147468567, 0.006589977536350489, 0.6251903772354126, 0.2321218103170395, -0.03730551153421402, 0.035320449620485306, 0.44079920649528503, -0.5875647068023682, -0.701748251914978, 0.17637580633163452, 0.21966323256492615, -0.2465590089559555, -1.817481279373169, 0.37474244832992554], [0.2886527180671692, -0.04630308598279953, 0.04732672870159149, -0.88265061378479, -0.0915796235203743, 0.06481784582138062, 0.33938539028167725, -0.4727917015552521, 0.5789676308631897, -0.09773977845907211, 0.32093894481658936, -0.15927954018115997, -0.5972148180007935, -0.5672298669815063, 0.5940107703208923, -0.004854278638958931], [-0.8400306105613708, 0.023097235709428787, 0.4374829828739166, -0.2151383012533188, 0.13965152204036713, 0.46045562624931335, -0.014941352419555187, -0.7000151872634888, 0.16459700465202332, 0.19232191145420074, 0.032237183302640915, -0.013164994306862354, 0.020712044090032578, 0.30717766284942627, -0.15751568973064423, 0.08159327507019043]], "2_weights": [[-0.14768031239509583, -0.1675274670124054, -0.1674276739358902], [-0.10431589931249619, -0.1980665624141693, 0.26243865489959717], [-0.022457432001829147, 0.22942198812961578, 0.3312346339225769], [-0.08095669746398926, 0.5611914992332458, -0.4385514259338379], [0.2949592173099518, 0.1031152680516243, 0.11777094751596451], [-0.45355716347694397, -0.4289630949497223, -0.5396043658256531], [0.13414324820041656, 0.5616913437843323, 0.4809526801109314], [0.10932909697294235, 0.05376896262168884, -0.0434081107378006], [0.23509231209754944, 0.2558233439922333, 0.20417740941047668], [-0.4456900358200073, 0.05819472670555115, 0.4769608974456787], [-0.4425166845321655, -0.08408357948064804, -0.06153047829866409], [-0.18452584743499756, -0.16225098073482513, -0.19379189610481262], [-0.150356262922287, 0.24166914820671082, -0.07777977734804153], [0.11379342526197433, -0.1461421400308609, -0.04408606141805649], [-0.37954989075660706, -0.1738971620798111, -0.1748674511909485], [0.1032305508852005, 0.041443608701229095, 0.20973552763462067]], "0_bias": [0.19429221749305725, -0.1383267045021057, -0.04188011586666107, 0.10659459233283997, 0.05223969370126724, -0.1738405078649521, 0.047960638999938965, -0.05066733434796333, -0.12346944957971573, 0.03232219070196152, -0.001976225059479475, 0.024361394345760345, 0.0001087463679141365, -0.029749421402812004, 0.03528197109699249, -0.10346132516860962], "1_bias": [0.03594420477747917, -0.2465074509382248, -0.20185011625289917, -0.29934391379356384, -0.4180813729763031, -0.011570465750992298, 0.38293755054473877, -0.2654881775379181, -0.5182803869247437, -0.09059463441371918, 0.4795681834220886, 0.06043490022420883, -0.3425975739955902, -0.3776063024997711, -0.2817271649837494, 0.15629908442497253], "2_bias": [0.03149418905377388, -0.09652624279260635, -0.16402046382427216]}