{"triplane_resolution": 4096, "triplane_voxel_size": 0.0009765625, "sparse_grid_resolution": 512, "sparse_grid_voxel_size": 0.0078125, "range_features": [-7.0, 7.0], "range_density": [-14.0, 14.0], "data_block_size": 16, "atlas_width": 1819, "atlas_height": 255, "atlas_depth": 17, "num_slices": 17, "slice_depth": 1, "0_weights": [[-0.16458678245544434, 0.12433911859989166, 1.6739072799682617, 2.4390039443969727, -0.8001054525375366, 0.9846559762954712, 0.5837058424949646, -0.2744946777820587, -0.004841949790716171, -0.3204028308391571, 0.2882474958896637, -0.018627779558300972, 0.15569759905338287, -1.6790947914123535, -1.4087294340133667, -0.6814773678779602], [0.12427394092082977, -0.21268577873706818, 0.5037540793418884, -1.556857705116272, -0.59507155418396, -0.5014196038246155, 1.1005357503890991, -0.23145179450511932, 1.257433533668518, -0.49753689765930176, 0.16493603587150574, -0.09359703212976456, 0.5099765658378601, 0.49918171763420105, 1.4829615354537964, 0.23505717515945435], [-3.5214643478393555, -0.5880178213119507, 2.3149383068084717, 1.1247339248657227, 0.12839846312999725, -0.9470279216766357, 0.9973034858703613, -0.27343493700027466, 0.5048848390579224, -0.206830695271492, -0.13161510229110718, 0.08531512320041656, -0.130730539560318, 0.35891157388687134, 1.92767333984375, -0.4039660692214966], [2.851743459701538, -0.07110318541526794, -0.21357139945030212, 1.3030864000320435, 0.7242602109909058, 0.06539391726255417, 1.30680513381958, 0.2776339054107666, 0.4458470046520233, 0.08331042528152466, 0.5127978324890137, -0.49249768257141113, 1.929625153541565, 2.063445568084717, -0.5239512324333191, -2.3346941471099854], [0.2985968291759491, -0.6256833672523499, 1.120676875114441, 0.8436082601547241, 0.616225004196167, -0.12885712087154388, -1.1606378555297852, -0.4731396436691284, 1.1494765281677246, -0.5112881064414978, -0.9036149978637695, 0.8667225241661072, 0.720751166343689, 0.13713058829307556, 0.22306224703788757, 1.4878021478652954], [1.1021268367767334, -0.15668997168540955, 0.44929659366607666, -0.9935501217842102, -3.547302484512329, 6.226090908050537, -2.954054832458496, -0.3103291690349579, -1.132287621498108, -1.3842915296554565, 0.26305779814720154, 2.523113250732422, 2.2786309719085693, 0.6276139616966248, 1.2780756950378418, 1.4555025100708008], [-1.699597716331482, 0.09723417460918427, -1.6301547288894653, -1.498802661895752, 0.3665528893470764, -1.0620777606964111, -0.6051506400108337, 0.11039844155311584, -0.5348716378211975, -1.6745744943618774, 1.098203420639038, -0.471008837223053, 0.44750499725341797, -1.2703351974487305, 0.23870857059955597, 0.5089517831802368], [-0.4788225293159485, 0.3497399687767029, 0.06779016554355621, 0.19988468289375305, 0.33430302143096924, 0.2692576050758362, 0.07353925704956055, -0.3243512213230133, 0.8615081906318665, -0.3263723850250244, 0.04202928766608238, 0.48360154032707214, 0.007881383411586285, 0.2714379131793976, 0.2821553349494934, 0.23285792768001556], [0.2422807514667511, -0.014754127711057663, 0.1713295876979828, -0.12591823935508728, 0.1891542673110962, -0.11427474766969681, 0.05865384638309479, 0.11678778380155563, -0.22505462169647217, 0.3274945616722107, 0.6427585482597351, 0.33973440527915955, -0.2048940360546112, 0.17365872859954834, -0.21588318049907684, 0.027798866853117943], [0.2081315964460373, 0.41169190406799316, -0.0956505760550499, 0.4542337656021118, 0.22501415014266968, 0.1697264164686203, 0.04590088501572609, 0.39607006311416626, 0.6809089779853821, -0.18522106111049652, 0.3724750876426697, -0.43089184165000916, -0.07610389590263367, -0.33907270431518555, -0.13635531067848206, -0.3828693628311157], [-0.11622403562068939, -0.16341431438922882, -0.23018480837345123, -0.009584836661815643, -0.2658683657646179, 0.08408854156732559, -0.0982116088271141, -0.048471130430698395, 0.35626310110092163, 0.28432515263557434, 0.3430642783641815, 0.30376136302948, -0.2733403742313385, -0.35713517665863037, 0.20860713720321655, -0.2809044420719147], [-0.17448115348815918, -0.0967143252491951, -0.4703567624092102, 0.20476476848125458, 0.61762535572052, 0.051424939185380936, 0.15486575663089752, -0.2047557234764099, 0.12476295977830887, -0.1138232946395874, 0.4139273166656494, -0.2122461050748825, 0.26336124539375305, 0.08069004863500595, -0.16634508967399597, 0.02197999693453312], [-0.46972787380218506, 0.3102875351905823, -0.16268125176429749, 0.004866547416895628, -0.3493722379207611, -0.2748890519142151, 0.2713403105735779, 0.21319009363651276, 0.2931247651576996, 0.07994985580444336, 0.46955397725105286, -0.17961333692073822, 0.5059506893157959, 0.13053973019123077, 0.1766745150089264, 0.2613541781902313], [0.09761086851358414, -0.03857352212071419, 0.2668956220149994, 0.19718937575817108, 0.14826518297195435, 0.2554282546043396, -0.25965362787246704, 0.24682201445102692, 0.269671231508255, -0.35148757696151733, -0.07864846289157867, -0.37156328558921814, -0.07812809944152832, -0.02270088531076908, 0.1280292123556137, 0.017428526654839516], [0.2636508643627167, 0.06295622885227203, 0.004462892655283213, 0.17621175944805145, 0.0213999692350626, -0.057294730097055435, 0.1562991589307785, 0.007847475819289684, -0.23502005636692047, 0.2950735092163086, 0.6305128335952759, 0.08199375122785568, 0.17583806812763214, -0.3251924514770508, -0.3223872780799866, 0.16272303462028503], [0.27484479546546936, 0.2709861695766449, -0.1289844661951065, 0.09341692179441452, -0.0024014515802264214, -0.0006655348115600646, -0.005367016885429621, 0.23311631381511688, 0.42981743812561035, -0.3413115441799164, -0.14830447733402252, -0.20751182734966278, 0.058657336980104446, -0.04778037220239639, 0.18182431161403656, 0.23095566034317017], [-0.00928293913602829, -0.18144755065441132, -0.06831307709217072, 0.1680358499288559, 0.1022387370467186, -0.0984620749950409, 0.056164443492889404, -0.288491427898407, -0.2022733986377716, 0.06963804364204407, -0.2040252685546875, 0.08597584068775177, 0.06602457910776138, 0.15466174483299255, -0.33586668968200684, -0.08710730820894241], [-0.19180160760879517, 0.12643522024154663, 0.15791159868240356, 0.20897673070430756, 0.19163309037685394, -0.062267936766147614, -0.1511191576719284, -0.18715913593769073, -0.006514604203402996, 0.052504509687423706, 0.011531073600053787, 0.29495933651924133, -0.0797162875533104, -0.21028929948806763, -0.4593672454357147, 0.02323347143828869], [0.3135673403739929, 0.3810538351535797, 0.22650331258773804, -0.5417983531951904, 0.2214764952659607, -0.24730102717876434, -0.2584172487258911, 0.14292815327644348, 0.1095094084739685, -0.5647950768470764, 0.041292931884527206, -0.37690427899360657, 0.015584246255457401, -0.07555530965328217, -0.26838651299476624, 0.3053014874458313], [0.038804106414318085, -0.18870799243450165, 0.02996266819536686, -0.0841461792588234, -0.1516486555337906, -0.013131415471434593, -0.01810358464717865, 0.11107377707958221, 0.021684395149350166, -0.019593384116888046, 0.0014574647648259997, -0.10534334927797318, 0.026401041075587273, -0.08562464267015457, 0.08616643399000168, -0.004036239348351955], [0.051595497876405716, 0.10604045540094376, -0.008359561674296856, 0.03875517100095749, -0.08380615711212158, -0.025643624365329742, 0.03730100765824318, 0.26167988777160645, -0.038063354790210724, 0.06789611279964447, 0.05113891884684563, 0.029218168929219246, -0.03232894465327263, -0.023577358573675156, 0.05952432006597519, -0.0075539820827543736], [-0.008046549744904041, 0.05118411034345627, 0.347671240568161, 0.3112812340259552, 0.21750259399414062, -0.1309228241443634, -0.295686274766922, 0.16392171382904053, -0.21182377636432648, 0.08770895004272461, -0.5029324293136597, 0.04921836778521538, 0.29042837023735046, 0.18810923397541046, -0.4183293879032135, 0.09411023557186127], [0.40923449397087097, -0.3930165767669678, -0.24069656431674957, -0.3823195695877075, -0.33281007409095764, -0.3919447064399719, 0.28531506657600403, -0.02770451456308365, 0.08903241157531738, 0.21860438585281372, 0.01795816794037819, -0.044738829135894775, 0.21254685521125793, 0.26402103900909424, -0.3483058512210846, 0.13048413395881653], [-0.16060927510261536, 0.14542552828788757, 0.03880513459444046, -0.2311098426580429, 0.018237274140119553, 0.2986653447151184, -0.35362595319747925, -0.4422076344490051, 0.1848018765449524, 0.23553958535194397, 0.257148802280426, -0.10962547361850739, -0.5579954981803894, 0.5851567983627319, 0.02049601823091507, 0.515437662601471], [0.4015507400035858, -0.47529906034469604, 0.17520536482334137, -0.24808713793754578, -0.08825987577438354, 0.1281798928976059, -0.3944264054298401, 0.06845539063215256, 0.2134113907814026, 0.5078920722007751, -0.22552457451820374, 0.11227764189243317, -0.33899760246276855, 0.31201156973838806, 0.0576847679913044, 0.414077490568161], [0.5029398798942566, 0.005563537124544382, 0.19456319510936737, -0.5833359360694885, 0.18127001821994781, -0.17830058932304382, -0.295989990234375, -0.09411730617284775, -0.06149384751915932, 0.2712167203426361, 0.08969131112098694, 0.017996948212385178, 0.05666741356253624, -0.33894622325897217, -0.43885451555252075, 0.1985374242067337], [0.27904212474823, -0.09477628022432327, -0.06308633089065552, 0.3842203915119171, 0.16836068034172058, 0.11297980695962906, -0.07783994823694229, -0.41516780853271484, 0.11991561204195023, 0.48740220069885254, -0.48110029101371765, 0.23994961380958557, 0.3344478905200958, 0.327119380235672, -0.03402238339185715, -0.06645095348358154], [-0.3775370717048645, -0.4282423257827759, -0.2590593993663788, 0.5941726565361023, -0.16951744258403778, 0.3248389661312103, -0.005953419487923384, 0.15780474245548248, 0.714126706123352, 0.014572584070265293, 0.024227701127529144, 0.20226509869098663, -0.8242202401161194, -0.06727908551692963, 0.0760006532073021, -0.24460484087467194], [-0.13109804689884186, -0.09249948710203171, 0.10570289194583893, 0.33736199140548706, -0.15856114029884338, 0.23546242713928223, -0.0860106348991394, 0.14770163595676422, 0.17491547763347626, 0.0066494690254330635, -0.3968812823295593, -0.023969335481524467, -0.007528872229158878, 0.0901295393705368, -0.11901937425136566, -0.042293258011341095], [0.12856653332710266, 0.010884816758334637, 0.04061669483780861, -0.3140319585800171, -0.022436533123254776, -0.09550663083791733, -0.08549652993679047, 0.26315757632255554, -0.4087041914463043, -0.21332453191280365, 0.06966452300548553, -0.3385196030139923, 0.08117307722568512, -0.17638063430786133, 0.09637308865785599, -0.03385680168867111], [0.12038635462522507, -0.09112855046987534, 0.11632783710956573, 0.3101605474948883, -0.29756250977516174, 0.04521465301513672, 0.2611166834831238, 0.17413745820522308, 0.5431177020072937, 0.29930734634399414, 0.09624805301427841, -0.4755209684371948, -0.14318962395191193, -0.23408089578151703, -0.22901266813278198, 0.07872959226369858], [0.051694463938474655, 0.13734380900859833, -0.006722417660057545, -0.1075105369091034, 0.0029198727570474148, -0.0524006225168705, 0.022873930633068085, 0.132330060005188, -0.01889031007885933, 0.053661927580833435, 0.057059209793806076, 0.011741180904209614, 0.014663221314549446, -0.04315947741270065, -0.037575386464595795, 0.034747157245874405], [-0.03275615721940994, 0.10426794737577438, -0.018814051523804665, -0.02714386023581028, 0.012941064313054085, 0.002071142429485917, 0.007608417421579361, -0.10978490114212036, -0.023728301748633385, 0.03152713179588318, 0.018680565059185028, 0.0580274872481823, 0.0233141016215086, -0.05358527600765228, -0.04384583234786987, -0.0048385863192379475], [0.2633682191371918, 0.004638825077563524, 0.18237273395061493, -0.1887267678976059, -0.27518725395202637, 0.37650972604751587, -0.027503132820129395, 0.2684508264064789, -0.08600614964962006, 0.09026035666465759, -0.577433705329895, -0.3877090811729431, 0.18796850740909576, -0.08053642511367798, -0.016379645094275475, -0.06175122410058975]], "1_weights": [[0.9834080934524536, 0.15398186445236206, -0.034229718148708344, -0.16724172234535217, 0.38959577679634094, 0.541734516620636, -0.1203298419713974, 0.6498299241065979, -0.15541252493858337, -0.3059561550617218, -0.28440025448799133, -0.02406211383640766, 0.7021832466125488, 0.06674806773662567, 0.960172176361084, -0.5052554607391357], [0.2511344850063324, -0.27593281865119934, -0.23699821531772614, -0.18697115778923035, 0.2147575467824936, -0.2678085267543793, -0.39232179522514343, -0.3304961025714874, -0.021099887788295746, -0.41333553194999695, 0.2541710138320923, 0.48606202006340027, 0.050901610404253006, 0.07534049451351166, -0.13956955075263977, -0.08570414781570435], [-0.34600964188575745, -0.31493884325027466, -0.29921767115592957, -0.1292714923620224, -0.2273888885974884, 0.6224302053451538, -0.4550233781337738, 0.6940863132476807, -0.04929268732666969, 0.1427215188741684, 0.9652207493782043, 0.3383747339248657, -0.6706992387771606, 0.2100054770708084, 0.39222148060798645, 0.6051547527313232], [0.2486453652381897, -0.1177501454949379, 0.004488631151616573, 1.0058703422546387, 0.42713919281959534, 0.12036465108394623, -0.03509785607457161, -0.6331686973571777, 0.15340135991573334, -0.2973387539386749, -0.9430251717567444, -0.6984558701515198, -0.5137743949890137, 0.4101772606372833, 0.32388895750045776, 0.2399328052997589], [-0.13311129808425903, 0.025349516421556473, -0.5272437930107117, -0.8283190131187439, -0.4224362075328827, 0.30075034499168396, -0.21986182034015656, -0.04539141431450844, -0.024677695706486702, -0.04187313839793205, -0.40632572770118713, 0.36169669032096863, -0.1906784027814865, 0.2596290409564972, 0.5333604216575623, 0.5485724806785583], [0.23781070113182068, -0.07267197221517563, 0.17687417566776276, 0.1612548977136612, 0.22124354541301727, -0.37773773074150085, 0.08577817678451538, -0.1799037605524063, -1.3972340822219849, -0.6103907227516174, 0.07587377727031708, -2.84694242477417, 0.052830543369054794, 0.10790958255529404, 0.42711564898490906, -1.0127605199813843], [0.5245369076728821, 0.02551559917628765, -0.4149579405784607, 0.3018586337566376, 0.26338550448417664, 0.10808920115232468, -0.28641384840011597, -0.38937580585479736, -1.0625417232513428, -0.47869396209716797, 1.091154932975769, 0.34966206550598145, 0.41426751017570496, -1.1749720573425293, 0.8648890256881714, -0.21083761751651764], [0.5179120302200317, -0.16621997952461243, 0.47418472170829773, 0.28472158312797546, 0.14572292566299438, -0.08513373136520386, 0.11051933467388153, 0.0699087381362915, 0.4717552959918976, -0.38540560007095337, -0.04610930010676384, 0.3888232111930847, -0.499149888753891, 0.23458586633205414, 0.47482407093048096, 0.03412047028541565], [0.6141017079353333, 0.08274167031049728, 0.06754069030284882, -0.07098618894815445, 0.7302758097648621, -0.10000994056463242, 0.39223340153694153, 0.4814448654651642, 0.02515065111219883, -0.3351653516292572, 0.7268727421760559, -0.2169528305530548, 0.24201123416423798, -0.15571099519729614, -0.06980396062135696, -0.17643354833126068], [0.3251170217990875, -0.22979003190994263, -0.5272999405860901, -1.2542603015899658, 0.30887696146965027, -0.7750295400619507, 0.8653539419174194, 0.24256914854049683, 0.35728082060813904, -0.27599507570266724, 0.07729698717594147, -0.047274135053157806, 0.13362425565719604, 0.825393795967102, -0.11732073128223419, 0.3543519675731659], [-0.14189419150352478, -0.18336094915866852, 0.4081374406814575, -0.9511430859565735, 0.1758764237165451, -0.32707685232162476, 0.4439205527305603, 0.6423568725585938, 0.3616360127925873, 0.2535296678543091, 0.14595553278923035, -0.4575626850128174, -0.11030030995607376, 0.25730326771736145, -0.21898019313812256, -0.05520447716116905], [-0.2909637689590454, 0.32964539527893066, -0.7457961440086365, -0.3751293122768402, -0.5715489983558655, 0.23856015503406525, -0.4623524844646454, -0.17932336032390594, -0.2864467203617096, -0.4935350716114044, 0.35810938477516174, -0.16368457674980164, 0.38789448142051697, -0.06887653470039368, -0.4615646302700043, -0.20403970777988434], [-0.6648392677307129, 0.14123572409152985, 0.3839976191520691, 0.3871534764766693, -0.8154581785202026, 0.8606211543083191, -1.1130752563476562, 0.4734360873699188, 0.015563576482236385, -0.5883825421333313, 0.038943976163864136, -0.8263838887214661, -0.21098692715168, 0.6913614273071289, -0.033516980707645416, 0.3999234437942505], [-0.06051774322986603, 0.37929561734199524, -0.18281301856040955, 0.33157381415367126, 0.6391064524650574, 0.6725168228149414, -0.9052927494049072, 0.47715991735458374, 0.1835685819387436, -0.6030223965644836, -0.031607288867235184, 0.5765305757522583, 0.49999573826789856, -1.364342451095581, -0.8537653088569641, -0.13793779909610748], [-0.05897354334592819, 0.007763116154819727, -0.0957985445857048, -0.1968635767698288, -0.7700955271720886, 0.1452510505914688, -2.3745551109313965, -0.07573182880878448, 0.014913354068994522, -0.11227995902299881, 0.21091009676456451, 0.04321647807955742, 0.12268070876598358, 0.13589031994342804, 0.26202091574668884, 0.46053391695022583], [0.11529333144426346, -0.1679861843585968, 0.4933420419692993, -0.7082569599151611, 0.45282667875289917, 0.41584092378616333, -0.20133206248283386, -1.2299009561538696, -1.0140485763549805, 0.01657535880804062, -0.7576795220375061, -0.31881409883499146, -0.23483556509017944, -0.399061381816864, -0.3806244432926178, -0.2599591016769409]], "2_weights": [[-0.5793275833129883, -0.6517171859741211, -0.5883303880691528], [-0.21725939214229584, -0.3452964723110199, -0.0951286256313324], [0.17849484086036682, 0.2093142718076706, 0.22202709317207336], [-0.47727853059768677, -0.6397761702537537, -1.0437556505203247], [0.5371123552322388, 0.6005703210830688, 0.6196919679641724], [-0.5378036499023438, -0.5041619539260864, -0.5981327891349792], [0.7027904987335205, 0.6100892424583435, 0.7458202242851257], [0.529891312122345, 0.5487722754478455, 0.5944553017616272], [-0.30395933985710144, -0.30986204743385315, -0.42089128494262695], [-0.32235878705978394, 0.17339231073856354, 0.30354052782058716], [-0.5671993494033813, -0.5863145589828491, -0.5284013748168945], [0.4626031816005707, 0.4531966745853424, 0.46645209193229675], [0.4051026999950409, 0.4202613830566406, 0.32635679841041565], [-0.6301332116127014, -0.45708784461021423, -0.642189085483551], [-1.0523707866668701, -0.9529711008071899, -0.8520851135253906], [0.4338189661502838, 0.4252249002456665, 0.481446772813797]], "0_bias": [0.11987614631652832, -0.15317361056804657, 0.15939442813396454, -0.03907005861401558, -0.04649898037314415, -0.04282141104340553, -0.013820377178490162, -0.09318378567695618, -0.14657355844974518, 0.2443736046552658, -0.019789498299360275, 0.11700106412172318, -0.17406651377677917, 0.08151540160179138, -0.04877881333231926, 0.05206457898020744], "1_bias": [0.32818642258644104, -0.015498326160013676, 0.04997405782341957, -0.8050503730773926, -0.2746008336544037, -0.004350035451352596, -0.06359150260686874, 0.13440556824207306, 0.6206929087638855, -0.291856050491333, 0.014335687272250652, 0.38279181718826294, -0.5666104555130005, -0.42739152908325195, -1.299588680267334, 0.004338218830525875], "2_bias": [0.09261123836040497, 0.11783449351787567, -0.04583495855331421]}