{
    "voxel_size": 0.0078125,
    "block_size": 8,
    "grid_width": 512,
    "grid_height": 512,
    "grid_depth": 512,
    "slice_depth": 1,
    "worldspace_T_opengl": [
      [
        1,
        0,
        0,
        0
      ],
      [
        0,
        1,
        0,
        0
      ],
      [
        0,
        0,
        1,
        0
      ],
      [
        0,
        0,
        0,
        1
      ]
    ],
    "min_x": -2,
    "min_y": -2,
    "min_z": -2,
    "voxel_size_triplane": 0.0009765625,
    "plane_width_0": 4096,
    "plane_height_0": 4096,
    "plane_width_1": 4096,
    "plane_height_1": 4096,
    "plane_width_2": 4096,
    "plane_height_2": 4096,
    "format": "png",
    "atlas_width": 972,
    "atlas_height": 972,
    "atlas_depth": 9,
    "num_slices": 9,
    "atlas_blocks_x": 108,
    "atlas_blocks_y": 108,
    "atlas_blocks_z": 1,
    "0_weights": [
      [
        -0.2460310161113739,
        0.42703932523727417,
        0.05773517116904259,
        -0.11080282926559448,
        -0.449490487575531,
        -0.05993109941482544,
        0.115042544901371,
        0.395541787147522,
        0.10259721428155899,
        -0.04147770628333092,
        -0.4243977665901184,
        -0.11656710505485535,
        -0.46782922744750977,
        -0.250605046749115,
        0.27963072061538696,
        -0.017717882990837097
      ],
      [
        -0.320980966091156,
        0.2991407513618469,
        0.08427999168634415,
        -0.08290458470582962,
        -0.068655826151371,
        0.07211155444383621,
        0.33841124176979065,
        0.371197372674942,
        0.3739762008190155,
        -0.1585126519203186,
        -0.26845183968544006,
        0.1323513388633728,
        -0.3566482663154602,
        0.008838788606226444,
        0.20945948362350464,
        -0.14625513553619385
      ],
      [
        -0.12034126371145248,
        0.18715807795524597,
        0.22304637730121613,
        -0.1712017059326172,
        0.0014863649848848581,
        -0.02172844298183918,
        0.05329249054193497,
        0.5139502286911011,
        -0.09766297787427902,
        -0.2156916856765747,
        -0.32588180899620056,
        -0.1773752123117447,
        -0.23299510776996613,
        0.025860831141471863,
        0.11413328349590302,
        -0.3178098499774933
      ],
      [
        0.07968579232692719,
        0.25576260685920715,
        0.39520955085754395,
        -0.21109162271022797,
        0.03336712345480919,
        -0.2551737427711487,
        0.33022722601890564,
        -0.1649065613746643,
        -0.7099764347076416,
        0.485401451587677,
        0.2619280219078064,
        -0.14782308042049408,
        0.5326573848724365,
        -0.3120760917663574,
        0.7172189354896545,
        0.2834816575050354
      ],
      [
        0.22404779493808746,
        0.19791753590106964,
        0.4509926438331604,
        0.19975315034389496,
        -0.6255674958229065,
        0.4529513716697693,
        0.18524105846881866,
        0.06428223103284836,
        0.4094119071960449,
        -0.2363327145576477,
        -0.040236569941043854,
        -0.21282607316970825,
        0.25754305720329285,
        0.31060710549354553,
        0.5707818865776062,
        0.3562159538269043
      ],
      [
        0.04765361174941063,
        -0.7464666962623596,
        0.4413817226886749,
        -0.043714385479688644,
        0.04283727705478668,
        -0.6020470261573792,
        0.7641736268997192,
        1.0715186595916748,
        0.07609810680150986,
        0.06062635779380798,
        0.4593392014503479,
        0.234854057431221,
        -0.3254856765270233,
        -0.4186246395111084,
        0.16731220483779907,
        0.3091289699077606
      ],
      [
        -0.8303967714309692,
        0.2984309196472168,
        0.26621559262275696,
        0.28573280572891235,
        -0.03858640789985657,
        0.2615768313407898,
        0.6287620663642883,
        -0.33859485387802124,
        0.281496524810791,
        0.12745055556297302,
        0.286358118057251,
        0.16146421432495117,
        0.09640392661094666,
        -0.2691405713558197,
        0.1265963762998581,
        0.32172250747680664
      ],
      [
        0.11010946333408356,
        -0.18905101716518402,
        -0.4063681364059448,
        -0.05178731307387352,
        0.2654816508293152,
        0.19150307774543762,
        -0.04130839183926582,
        -0.31147319078445435,
        0.26500245928764343,
        0.127749502658844,
        -0.07980149239301682,
        0.0892319306731224,
        0.045612435787916183,
        -0.003788992529734969,
        0.3928975760936737,
        0.06315632164478302
      ],
      [
        -0.20340515673160553,
        0.04924339801073074,
        0.09570318460464478,
        0.018749509006738663,
        0.11232497543096542,
        0.25268930196762085,
        -0.27856266498565674,
        0.13120010495185852,
        0.24695076048374176,
        0.08340323716402054,
        -0.0183811467140913,
        0.04468093812465668,
        0.1365130990743637,
        0.3112713396549225,
        -0.035893701016902924,
        0.025180544704198837
      ],
      [
        -0.1481476128101349,
        -0.0761067345738411,
        0.19540034234523773,
        -0.23306989669799805,
        -0.044812195003032684,
        -0.15550264716148376,
        0.11564529687166214,
        0.019335726276040077,
        -0.047230999916791916,
        -0.10532781481742859,
        0.12273026257753372,
        -0.18650589883327484,
        -0.1512417048215866,
        0.02617449127137661,
        -0.03198544681072235,
        -0.13331234455108643
      ],
      [
        0.07020963728427887,
        -0.043058983981609344,
        -0.2836415469646454,
        0.2282397747039795,
        0.3320082128047943,
        -0.04778764769434929,
        0.030874330550432205,
        -0.13759565353393555,
        0.27857211232185364,
        0.14468427002429962,
        0.22000378370285034,
        0.15846900641918182,
        -0.01329141017049551,
        -0.2583240866661072,
        0.2956051230430603,
        0.11503639072179794
      ],
      [
        -0.2695682942867279,
        0.19910167157649994,
        0.21010032296180725,
        0.07549485564231873,
        -0.21157243847846985,
        0.2679716944694519,
        -0.15469887852668762,
        0.07955437153577805,
        0.19171087443828583,
        0.1643598973751068,
        0.03474942222237587,
        -0.03961034491658211,
        0.01948869414627552,
        0.29185307025909424,
        0.027272257953882217,
        0.030250607058405876
      ],
      [
        0.044339220970869064,
        -0.1097535565495491,
        0.00031532265711575747,
        -0.14570698142051697,
        0.05615972727537155,
        -0.14728626608848572,
        -0.04171515628695488,
        0.11973974108695984,
        0.0003101065813098103,
        -0.13883580267429352,
        -0.14186106622219086,
        -0.08867452293634415,
        -0.07755542546510696,
        -0.06524781137704849,
        -0.010265861637890339,
        -0.234314426779747
      ],
      [
        0.1256943941116333,
        0.006214244291186333,
        -0.052120551466941833,
        0.043548453599214554,
        0.10353735834360123,
        -0.1747698038816452,
        -0.11324772238731384,
        0.10285378992557526,
        0.06618452817201614,
        -0.04738428816199303,
        -0.04869094491004944,
        0.23064173758029938,
        -0.042667921632528305,
        0.16445142030715942,
        -0.06763797253370285,
        -0.10542646795511246
      ],
      [
        -0.03414332866668701,
        -0.022941095754504204,
        -0.06441059708595276,
        0.16619239747524261,
        0.11156509071588516,
        -0.012363675981760025,
        0.07183261215686798,
        -0.10881362110376358,
        0.05215443670749664,
        0.10624104738235474,
        0.10162878781557083,
        0.24312150478363037,
        0.09413480013608932,
        -0.013531077653169632,
        -0.11092713475227356,
        0.15540270507335663
      ],
      [
        -0.14129644632339478,
        -0.09769389778375626,
        -0.1443151831626892,
        0.20285271108150482,
        0.0843043178319931,
        -0.03871747851371765,
        -0.04034903645515442,
        -0.08224405348300934,
        0.024338381364941597,
        0.10798806697130203,
        0.038819532841444016,
        0.19136245548725128,
        -0.1574317365884781,
        -0.013930809684097767,
        -0.12448907643556595,
        0.07834815233945847
      ],
      [
        0.07341346889734268,
        -0.2702893912792206,
        -0.23580250144004822,
        0.00014943683345336467,
        0.24505704641342163,
        -0.06980545073747635,
        -0.08778078109025955,
        0.020187579095363617,
        0.2884385585784912,
        0.10511650145053864,
        0.028739485889673233,
        0.1873074322938919,
        -0.09235551208257675,
        -0.31594839692115784,
        0.2627498507499695,
        -0.016200724989175797
      ],
      [
        0.006470664404332638,
        0.22244828939437866,
        0.04621785879135132,
        -0.08410957455635071,
        -0.1613771766424179,
        -0.018672814592719078,
        -0.2141718566417694,
        -0.02745795249938965,
        0.20317763090133667,
        0.0947042852640152,
        -0.013037548400461674,
        0.08405998349189758,
        -0.0330825112760067,
        0.06421337276697159,
        0.07962019741535187,
        0.0878104642033577
      ],
      [
        -0.00816018134355545,
        0.007401107810437679,
        0.14748577773571014,
        0.06226128339767456,
        -0.12322994321584702,
        0.04064973443746567,
        0.17624127864837646,
        -0.01087374147027731,
        -0.036261554807424545,
        -0.1412462592124939,
        -0.049576979130506516,
        -0.12569865584373474,
        0.021909110248088837,
        -0.18536965548992157,
        0.2228657454252243,
        -0.2035796344280243
      ],
      [
        0.06966191530227661,
        -0.12729279696941376,
        -0.0922195315361023,
        0.05575084313750267,
        0.03539703041315079,
        0.10964024811983109,
        -0.37032026052474976,
        -0.023986293002963066,
        0.0940178707242012,
        0.028955643996596336,
        0.10372310131788254,
        0.16821061074733734,
        0.07281308621168137,
        0.28755372762680054,
        -0.07986238598823547,
        0.1624642312526703
      ],
      [
        -0.013689367100596428,
        0.25061944127082825,
        -0.20692715048789978,
        -0.045022688806056976,
        0.10401694476604462,
        0.062374185770750046,
        -0.07740015536546707,
        -0.09924199432134628,
        0.19363197684288025,
        -0.10006843507289886,
        -0.125189408659935,
        0.09409574419260025,
        -0.06198809668421745,
        0.05801203101873398,
        -0.041538678109645844,
        -0.09179144352674484
      ],
      [
        0.04004503786563873,
        0.1265897899866104,
        -0.1658226102590561,
        0.061823852360248566,
        0.1435297578573227,
        0.0738040953874588,
        -0.2134207785129547,
        0.1363331526517868,
        0.12599918246269226,
        -0.0005435275961644948,
        0.06837467849254608,
        -0.1420990526676178,
        -0.11698628216981888,
        0.1079724058508873,
        -0.12551982700824738,
        -0.14239534735679626
      ],
      [
        0.1277058720588684,
        0.08284115791320801,
        -0.05495377629995346,
        0.14911937713623047,
        -0.3778988718986511,
        0.291849821805954,
        -0.056614506989717484,
        -0.05251742899417877,
        -0.15250909328460693,
        0.2415631115436554,
        0.1691758930683136,
        0.14318397641181946,
        0.11082634329795837,
        0.17332440614700317,
        0.0024697904009371996,
        0.23531875014305115
      ],
      [
        -0.20706325769424438,
        0.3104875981807709,
        0.07542858272790909,
        -0.1777113825082779,
        -0.28354328870773315,
        -0.10127894580364227,
        0.07951056957244873,
        0.16974064707756042,
        -0.13552404940128326,
        -0.08768925070762634,
        -0.06515678018331528,
        0.20352044701576233,
        0.0033356240019202232,
        0.10922538489103317,
        -0.034087155014276505,
        -0.20411944389343262
      ],
      [
        0.09094886481761932,
        -0.01211444940418005,
        0.06719230860471725,
        0.028022008016705513,
        -0.11192835122346878,
        0.12453791499137878,
        0.07542230188846588,
        -0.0772954598069191,
        0.08191107958555222,
        -0.042207442224025726,
        -0.056549154222011566,
        -0.06220724433660507,
        0.006137549877166748,
        0.1510751098394394,
        0.3311760127544403,
        -0.24140916764736176
      ],
      [
        -0.2060949206352234,
        0.12739787995815277,
        0.17124255001544952,
        0.01069945190101862,
        -0.0067312889732420444,
        -0.05935768783092499,
        0.1763719618320465,
        -0.12803153693675995,
        -0.21346579492092133,
        -0.031335119158029556,
        -0.13342885673046112,
        -0.02531883493065834,
        -0.11256679892539978,
        -0.01838442124426365,
        0.18678387999534607,
        0.08281303197145462
      ],
      [
        0.04590843245387077,
        -0.29995453357696533,
        -0.03990190848708153,
        0.0878768339753151,
        -0.11059699952602386,
        -0.0895412266254425,
        0.07546333223581314,
        -0.058916859328746796,
        0.2734038233757019,
        0.28325915336608887,
        0.03254769742488861,
        -0.11486844718456268,
        -0.07038363814353943,
        0.014886518009006977,
        0.27057597041130066,
        -0.1025710478425026
      ],
      [
        -0.038499075919389725,
        -0.2378583401441574,
        -0.29030007123947144,
        -0.2834463119506836,
        -0.0584762766957283,
        -0.1248626783490181,
        -0.013921208679676056,
        0.14721325039863586,
        -0.010594566352665424,
        -0.05053674429655075,
        -0.1507057100534439,
        -0.2910812497138977,
        -0.26792463660240173,
        0.04168235883116722,
        -0.19216227531433105,
        -0.3740309178829193
      ],
      [
        0.05219268053770065,
        -0.10038573294878006,
        0.03175796940922737,
        -0.05852077901363373,
        0.06798028945922852,
        -0.042282585054636,
        0.04012399539351463,
        -0.05296003818511963,
        0.0030519182328134775,
        -0.05324707180261612,
        -0.002486649202182889,
        0.008613872341811657,
        -0.04365371912717819,
        -0.007566224317997694,
        -0.023729607462882996,
        -0.0019627318251878023
      ],
      [
        0.013681796379387379,
        -0.10019870102405548,
        -0.004920157138258219,
        0.07855220884084702,
        -0.05299701541662216,
        -0.005484186112880707,
        0.020001912489533424,
        -0.03474539518356323,
        -0.006522960960865021,
        0.04850137606263161,
        0.005968412850052118,
        -0.0743904709815979,
        -0.03365233540534973,
        -0.08127198368310928,
        -0.0073947180062532425,
        0.08713379502296448
      ],
      [
        -0.045192085206508636,
        -0.15043015778064728,
        -0.08306343853473663,
        0.23594439029693604,
        -0.16587908565998077,
        -0.050815507769584656,
        0.09575941413640976,
        -0.11005500704050064,
        -0.024074139073491096,
        0.08502187579870224,
        -0.20291361212730408,
        0.1639658659696579,
        -0.07518898695707321,
        -0.1285104602575302,
        0.08714096993207932,
        -0.05026249215006828
      ],
      [
        0.09117265790700912,
        0.096591517329216,
        0.025036485865712166,
        -0.05147571489214897,
        0.09016823023557663,
        -0.037474650889635086,
        -0.015246277675032616,
        0.0712808147072792,
        -0.04161898419260979,
        -0.03691093251109123,
        -0.02588917687535286,
        -0.06585875153541565,
        0.04634661599993706,
        0.07023023813962936,
        -0.06093230098485947,
        -0.14046438038349152
      ],
      [
        0.0362430103123188,
        0.09202532470226288,
        -0.12076421827077866,
        0.11117716878652573,
        0.020766720175743103,
        0.08534842729568481,
        -0.02864159643650055,
        0.003042373573407531,
        -0.16588245332241058,
        0.13926394283771515,
        -0.0020638343412429094,
        -0.03623052313923836,
        0.018463019281625748,
        0.12899941205978394,
        -0.0759732574224472,
        0.15264658629894257
      ],
      [
        -0.03126955032348633,
        -0.16343341767787933,
        -0.10286711901426315,
        -0.03596377745270729,
        -0.09144815802574158,
        0.10405787080526352,
        -0.038388922810554504,
        0.0530170239508152,
        0.03276075795292854,
        -0.06459629535675049,
        -0.012321420013904572,
        0.2800486981868744,
        -0.19802722334861755,
        0.3160572946071625,
        -0.056588344275951385,
        -0.29241621494293213
      ]
    ],
    "0_bias": [
      0.12811274826526642,
      0.11960567533969879,
      -0.2480819970369339,
      0.09673535078763962,
      0.06125112250447273,
      0.07976372539997101,
      -0.25641298294067383,
      -0.16461646556854248,
      0.14552082121372223,
      0.1345207393169403,
      0.002766296034678817,
      0.07294005900621414,
      -0.1076115071773529,
      -0.008191073313355446,
      -0.3265327215194702,
      0.004213924985378981
    ],
    "1_weights": [
      [
        -0.25467684864997864,
        -0.949777364730835,
        -0.5746024250984192,
        0.5652995109558105,
        -0.24278247356414795,
        -0.12616369128227234,
        -0.23537547886371613,
        -0.40413960814476013,
        0.008247141726315022,
        -0.2209758758544922,
        0.12344618141651154,
        -0.3430989980697632,
        0.154581680893898,
        -0.3164909780025482,
        -0.2236541211605072,
        0.053334128111600876
      ],
      [
        -0.25515687465667725,
        -0.6550130248069763,
        -0.03657292574644089,
        0.09160058945417404,
        -0.03604720160365105,
        0.15344779193401337,
        -0.19479167461395264,
        0.07472889125347137,
        -0.29087454080581665,
        -0.14917594194412231,
        0.02463633380830288,
        0.1511429399251938,
        -0.14607550203800201,
        -0.22988878190517426,
        -0.1033797413110733,
        -0.15083664655685425
      ],
      [
        0.28097230195999146,
        -0.683703601360321,
        0.1859802007675171,
        -0.37225618958473206,
        0.3073042035102844,
        -0.020072486251592636,
        0.20457440614700317,
        0.4520145058631897,
        0.3187186121940613,
        0.016980482265353203,
        -0.2530173659324646,
        0.39598584175109863,
        -0.5482416749000549,
        0.28481072187423706,
        0.1352703720331192,
        0.16308459639549255
      ],
      [
        0.2647552192211151,
        0.01088810246437788,
        0.23587967455387115,
        -0.21897365152835846,
        -0.06731166690587997,
        -0.005417073145508766,
        -0.23698541522026062,
        0.07734803855419159,
        -0.06212319806218147,
        0.01598757691681385,
        0.2411075085401535,
        0.02068259008228779,
        0.1725129932165146,
        0.13774068653583527,
        0.061374638229608536,
        -0.30984702706336975
      ],
      [
        -0.0021732051391154528,
        0.18816234171390533,
        0.4365350306034088,
        -0.020287776365876198,
        0.1506842076778412,
        0.23314233124256134,
        0.01563161239027977,
        0.3666558563709259,
        0.10722135007381439,
        -0.15221750736236572,
        -0.268388956785202,
        0.18011857569217682,
        0.039152901619672775,
        0.30317604541778564,
        0.26339995861053467,
        0.18111777305603027
      ],
      [
        0.43140560388565063,
        -0.21595343947410583,
        0.429151326417923,
        0.01985870487987995,
        0.20831163227558136,
        0.2950657606124878,
        -0.1914633959531784,
        0.41090127825737,
        0.3510783910751343,
        -0.056105539202690125,
        0.03039630316197872,
        0.4307669401168823,
        0.05345578491687775,
        0.23569180071353912,
        0.32129552960395813,
        0.2587870955467224
      ],
      [
        0.48634713888168335,
        0.054120983928442,
        0.42389360070228577,
        0.17103470861911774,
        0.16638484597206116,
        0.4085668921470642,
        -0.22078852355480194,
        0.2704170048236847,
        0.5150055289268494,
        -0.19343210756778717,
        0.21540488302707672,
        0.5319657325744629,
        -0.22393280267715454,
        0.3234082758426666,
        0.44419771432876587,
        0.25057029724121094
      ],
      [
        0.5066192150115967,
        0.9205834269523621,
        0.2680085003376007,
        -0.28525301814079285,
        0.31326937675476074,
        0.07956963777542114,
        -0.10141242295503616,
        0.4801676571369171,
        0.3310162425041199,
        0.10953999310731888,
        -0.24586141109466553,
        0.4137822389602661,
        0.01385556347668171,
        0.28066956996917725,
        0.25625792145729065,
        -0.10176555812358856
      ],
      [
        0.3678188920021057,
        0.5645782947540283,
        0.23159530758857727,
        0.0815514326095581,
        0.33407092094421387,
        0.26900148391723633,
        0.035565946251153946,
        0.14418640732765198,
        0.2860877215862274,
        -0.21188050508499146,
        0.017354341223835945,
        0.496946781873703,
        0.3626684546470642,
        0.5383189916610718,
        0.3001466691493988,
        -0.21590714156627655
      ],
      [
        0.17846941947937012,
        0.16033567488193512,
        -0.026713507249951363,
        0.043213292956352234,
        -0.05497898533940315,
        0.08171132951974869,
        0.1317485123872757,
        -0.09096793085336685,
        0.018901629373431206,
        -0.012617610394954681,
        -0.1050395593047142,
        -0.08623015880584717,
        -0.6964215636253357,
        0.046788208186626434,
        -0.13680486381053925,
        0.11901956796646118
      ],
      [
        0.08910035341978073,
        0.18975390493869781,
        0.2889532744884491,
        0.08494985103607178,
        0.046908386051654816,
        -0.05958094447851181,
        -0.17787238955497742,
        0.3152187764644623,
        0.35922884941101074,
        0.0851079672574997,
        0.17513878643512726,
        -0.023386381566524506,
        -0.5613970756530762,
        0.1661059558391571,
        -0.031843677163124084,
        0.20616336166858673
      ],
      [
        0.029388487339019775,
        0.11463381350040436,
        0.03677503764629364,
        -0.1766948699951172,
        0.04799944907426834,
        0.1576450765132904,
        -0.14607103168964386,
        0.21748346090316772,
        0.06970532983541489,
        -0.11535026878118515,
        0.3148891031742096,
        0.08328644186258316,
        -0.3611358404159546,
        0.1209774762392044,
        0.3337233066558838,
        -0.09663143008947372
      ],
      [
        0.21371683478355408,
        0.09283465147018433,
        0.3382275104522705,
        0.1493239849805832,
        0.15672758221626282,
        0.08105849474668503,
        0.04503071308135986,
        0.340655118227005,
        0.1591111421585083,
        -0.07378960400819778,
        -0.7410390973091125,
        0.20441314578056335,
        -0.34597069025039673,
        0.36642545461654663,
        0.3964719772338867,
        0.03352360799908638
      ],
      [
        0.34652671217918396,
        0.25020313262939453,
        0.01100489217787981,
        -0.2682226002216339,
        -0.0532996691763401,
        0.29253411293029785,
        0.009556452743709087,
        0.3018556237220764,
        0.10864926874637604,
        -0.16479842364788055,
        0.3684990704059601,
        0.2341470867395401,
        -0.09728063642978668,
        0.23998437821865082,
        0.3809662461280823,
        0.027440812438726425
      ],
      [
        -0.6578109264373779,
        -0.462747722864151,
        -0.8426579833030701,
        0.18576067686080933,
        -0.350077360868454,
        -0.39880800247192383,
        0.1708720475435257,
        -0.3045680820941925,
        -0.6749014854431152,
        -0.19452771544456482,
        -0.9317466020584106,
        -0.5024160742759705,
        -0.47887730598449707,
        -0.8367066979408264,
        -0.9033046364784241,
        -0.12959842383861542
      ],
      [
        0.2541331648826599,
        -0.11082187294960022,
        -0.03331522271037102,
        0.044708576053380966,
        -0.018075190484523773,
        0.0070868609473109245,
        -0.012055251747369766,
        -0.015724996104836464,
        0.0681336522102356,
        -0.008626192808151245,
        -0.3664448857307434,
        0.11392958462238312,
        0.11454422026872635,
        0.24918442964553833,
        0.38772013783454895,
        -0.24387918412685394
      ]
    ],
    "1_bias": [
      -0.25430986285209656,
      -0.21575552225112915,
      -0.21323582530021667,
      0.29624366760253906,
      0.18060064315795898,
      -0.051629602909088135,
      -0.24979794025421143,
      -0.06985611468553543,
      -0.15473777055740356,
      -0.1514884978532791,
      0.25570112466812134,
      -0.16617949306964874,
      0.4818095266819,
      -0.26647594571113586,
      -0.2819972634315491,
      0.08119472116231918
    ],
    "2_weights": [
      [
        -0.32082200050354004,
        -0.20174194872379303,
        -0.35865283012390137
      ],
      [
        -1.3614286184310913,
        -1.3582991361618042,
        -1.3805726766586304
      ],
      [
        -0.5396533012390137,
        -0.4517362415790558,
        -0.41886579990386963
      ],
      [
        0.26694464683532715,
        0.28233614563941956,
        0.13520033657550812
      ],
      [
        -0.1251021921634674,
        0.0670781135559082,
        -0.24248912930488586
      ],
      [
        -0.15143470466136932,
        -0.114143967628479,
        -0.10977912694215775
      ],
      [
        0.04172569885849953,
        -0.014836142770946026,
        -0.09957659989595413
      ],
      [
        -0.10273711383342743,
        -0.1302376538515091,
        -0.17975161969661713
      ],
      [
        -0.4214700162410736,
        -0.43666979670524597,
        -0.15403859317302704
      ],
      [
        0.07938210666179657,
        0.16107067465782166,
        0.10980068892240524
      ],
      [
        0.9796570539474487,
        1.0086605548858643,
        0.9939169883728027
      ],
      [
        -0.26991546154022217,
        -0.41941455006599426,
        -0.24999190866947174
      ],
      [
        1.0663436651229858,
        1.2596104145050049,
        1.29595148563385
      ],
      [
        -0.30988144874572754,
        -0.5566776394844055,
        -0.552625834941864
      ],
      [
        -0.35979679226875305,
        -0.31632712483406067,
        -0.399850070476532
      ],
      [
        0.4854995310306549,
        0.6341018080711365,
        0.8665096759796143
      ]
    ],
    "2_bias": [
      0.009899412281811237,
      0.043905794620513916,
      0.16928799450397491
    ]
  }