{
  "triplane_resolution": 4096,
  "triplane_voxel_size": 0.0009765625,
  "sparse_grid_resolution": 512,
  "sparse_grid_voxel_size": 0.0078125,
  "range_features": [
    -7.0,
    7.0
  ],
  "range_density": [
    -14.0,
    14.0
  ],
  "data_block_size": 8,
  "atlas_width": 1269,
  "atlas_height": 225,
  "atlas_depth": 9,
  "num_slices": 9,
  "slice_depth": 1,
  "0_weights": [
    [
      -1.3931410312652588,
      2.924178123474121,
      2.277780055999756,
      -0.5073629021644592,
      1.6589964628219604,
      -1.0688321590423584,
      1.1512126922607422,
      0.5132130980491638,
      -1.4191597700119019,
      -5.496692657470703,
      2.715426445007324,
      0.5732354521751404,
      -0.5791916847229004,
      -1.8409384489059448,
      4.98709774017334,
      -0.7050655484199524
    ],
    [
      1.520769715309143,
      -1.4083975553512573,
      -3.8576672077178955,
      -0.5847811102867126,
      3.0365195274353027,
      -5.784830570220947,
      2.15893292427063,
      2.1085727214813232,
      1.888463020324707,
      3.4754674434661865,
      0.5217099189758301,
      0.4029981195926666,
      4.153595447540283,
      0.6608959436416626,
      -0.8975378274917603,
      0.893031120300293
    ],
    [
      0.9228098392486572,
      -2.2825026512145996,
      0.5239977836608887,
      2.3333520889282227,
      -3.0438270568847656,
      4.281885147094727,
      3.3887388706207275,
      -7.180647373199463,
      0.22957541048526764,
      -0.6532242298126221,
      -0.9166257977485657,
      1.6172205209732056,
      3.812797784805298,
      -1.387098789215088,
      2.010936737060547,
      -4.096896648406982
    ],
    [
      0.45260748267173767,
      0.6963503360748291,
      -0.8302214741706848,
      -5.407336711883545,
      0.3443766236305237,
      -0.14847734570503235,
      0.10131406784057617,
      -2.143970489501953,
      0.24951162934303284,
      0.15235194563865662,
      -0.5712122917175293,
      1.4273278713226318,
      0.8075875043869019,
      1.1539655923843384,
      1.6837406158447266,
      0.15827666223049164
    ],
    [
      -0.4512799084186554,
      -0.24528658390045166,
      0.7936572432518005,
      -1.170284628868103,
      -1.0616822242736816,
      -6.670448303222656,
      -0.761975884437561,
      0.16099821031093597,
      1.2238785028457642,
      -0.05603591725230217,
      0.48607778549194336,
      0.5255171060562134,
      -0.01110757514834404,
      -0.33596041798591614,
      0.19410745799541473,
      0.08510394394397736
    ],
    [
      1.7559828758239746,
      0.2699336111545563,
      -4.294164657592773,
      1.8310739994049072,
      0.6440779566764832,
      0.33390480279922485,
      0.17965124547481537,
      -0.5415487885475159,
      0.1372579038143158,
      -0.3154209852218628,
      0.4158395826816559,
      0.15881851315498352,
      1.1354840993881226,
      0.8513214588165283,
      0.24489092826843262,
      0.029175272211432457
    ],
    [
      0.5097944140434265,
      -0.27474772930145264,
      -0.3258310854434967,
      0.21209508180618286,
      -0.11294816434383392,
      -0.894110918045044,
      0.9280270934104919,
      -0.5905954837799072,
      0.0832955464720726,
      -0.8041461110115051,
      0.19097299873828888,
      -0.6002512574195862,
      0.37614089250564575,
      0.6676903367042542,
      0.4751170873641968,
      -1.5856122970581055
    ],
    [
      -0.02815631590783596,
      0.14756950736045837,
      0.06562703102827072,
      -0.07757537811994553,
      0.2956456243991852,
      -0.03252961114048958,
      0.34788888692855835,
      -0.6779575943946838,
      0.3286164402961731,
      -0.4518771767616272,
      -0.1881033480167389,
      0.45330873131752014,
      0.10101880878210068,
      0.6477028131484985,
      0.05975186824798584,
      -0.17957913875579834
    ],
    [
      -0.15783949196338654,
      0.13719633221626282,
      0.013290535658597946,
      -0.3031657338142395,
      -0.2648305892944336,
      -0.07683730125427246,
      -0.5156332850456238,
      0.24454666674137115,
      0.021451203152537346,
      0.19868029654026031,
      0.31692320108413696,
      0.4492607116699219,
      -0.07258553802967072,
      0.10692936182022095,
      0.06983257085084915,
      -0.19130094349384308
    ],
    [
      0.3383869528770447,
      0.18641267716884613,
      -0.004236833658069372,
      0.031003648415207863,
      0.31412002444267273,
      -0.03152677044272423,
      0.05655130371451378,
      0.2483176589012146,
      0.4669649600982666,
      -0.07605210691690445,
      0.32139068841934204,
      -0.5557316541671753,
      -0.04878269135951996,
      -0.2934754192829132,
      -0.2379700094461441,
      -0.3711254894733429
    ],
    [
      0.196292906999588,
      -0.34245434403419495,
      -0.2103286236524582,
      -0.16000890731811523,
      -0.39106038212776184,
      -0.18966171145439148,
      0.1706506609916687,
      -0.30834126472473145,
      -0.13882233202457428,
      0.27556270360946655,
      0.187616765499115,
      0.29477906227111816,
      -0.1783270686864853,
      -0.1070665791630745,
      0.08560121059417725,
      -0.7050426006317139
    ],
    [
      -0.4858035445213318,
      0.0018902054289355874,
      -0.6454104781150818,
      0.11408311873674393,
      0.21939070522785187,
      0.11882712692022324,
      -0.27511492371559143,
      -0.06305132061243057,
      0.2967362403869629,
      -0.16575096547603607,
      0.038770243525505066,
      -0.12900590896606445,
      0.4452005624771118,
      0.05563817173242569,
      0.11828289926052094,
      -0.16379693150520325
    ],
    [
      -0.358977735042572,
      0.06578783690929413,
      -0.07136166840791702,
      -0.37858593463897705,
      -0.2637403905391693,
      -0.5127155184745789,
      0.2981528639793396,
      0.046785224229097366,
      0.09599179029464722,
      0.20072534680366516,
      0.4043903946876526,
      -0.30451279878616333,
      0.5389767289161682,
      0.17909862101078033,
      0.09313905239105225,
      0.27473965287208557
    ],
    [
      0.01885039545595646,
      -0.12955935299396515,
      0.33884304761886597,
      0.4093685448169708,
      -0.21693260967731476,
      0.04628722369670868,
      -0.043314121663570404,
      0.2634470462799072,
      -0.1092694103717804,
      -0.01349937729537487,
      -0.008531576953828335,
      -0.3293498456478119,
      0.01719246618449688,
      -0.11583224684000015,
      0.27784374356269836,
      -0.4258718490600586
    ],
    [
      0.21820542216300964,
      0.01355328131467104,
      -0.2256590723991394,
      0.34767645597457886,
      -0.19752271473407745,
      0.08245065808296204,
      0.17856845259666443,
      0.18903815746307373,
      -0.2833298444747925,
      0.46725890040397644,
      0.11378952860832214,
      0.07519935071468353,
      0.4910048544406891,
      -0.2163320779800415,
      -0.03555101156234741,
      0.0908021554350853
    ],
    [
      0.3279099464416504,
      -0.033653512597084045,
      -0.038743071258068085,
      -0.16339270770549774,
      0.07062476128339767,
      -0.33507364988327026,
      0.06846760213375092,
      0.01314963772892952,
      0.2881541848182678,
      -0.18493333458900452,
      -0.2516680955886841,
      -0.33145639300346375,
      0.1038333997130394,
      0.0086836451664567,
      0.14599475264549255,
      0.24367742240428925
    ],
    [
      -0.0551922470331192,
      0.178894504904747,
      0.01016476284712553,
      -0.05804405361413956,
      -0.4094031751155853,
      0.03421244025230408,
      -0.012159493751823902,
      -0.1768094152212143,
      0.18092548847198486,
      -0.06438134610652924,
      -0.08958615362644196,
      0.21920529007911682,
      0.06595984101295471,
      0.01753249205648899,
      0.11517732590436935,
      0.06508529931306839
    ],
    [
      -0.004955308977514505,
      -0.013467775657773018,
      0.10514111071825027,
      -0.06980055570602417,
      -0.06261128187179565,
      0.019358782097697258,
      -0.10800280421972275,
      -0.06573022156953812,
      -0.05978625640273094,
      0.1326903998851776,
      -0.1256018728017807,
      0.03579176962375641,
      -0.15400762856006622,
      0.002811186481267214,
      0.024185946211218834,
      -0.20128567516803741
    ],
    [
      0.09483044594526291,
      -0.2301422655582428,
      0.22878725826740265,
      -0.18809814751148224,
      0.10200691223144531,
      -0.7958889603614807,
      -0.07081633061170578,
      -0.0424736887216568,
      0.38285645842552185,
      -0.2529776990413666,
      -0.1070912703871727,
      -0.4406130015850067,
      -0.10845770686864853,
      -0.04925515502691269,
      -0.21486954391002655,
      0.05385226756334305
    ],
    [
      0.041052211076021194,
      -0.016739575192332268,
      0.03553925082087517,
      0.008722806349396706,
      -0.010175521485507488,
      0.17561060190200806,
      -0.01472789142280817,
      0.023833608254790306,
      -0.00767779303714633,
      0.035562530159950256,
      -0.024149589240550995,
      -0.006774016655981541,
      0.0022690314799547195,
      -0.040059853345155716,
      -0.016423869878053665,
      -0.003303950186818838
    ],
    [
      -0.021130135282874107,
      -0.015963494777679443,
      -0.004627566318958998,
      0.0014139023842290044,
      0.008419441990554333,
      0.022446926683187485,
      0.023130172863602638,
      0.06441539525985718,
      -0.01686224900186062,
      0.01793639548122883,
      0.001831966219469905,
      -0.02044586092233658,
      -0.0047865379601716995,
      0.02445777878165245,
      0.036967404186725616,
      -0.03285924717783928
    ],
    [
      0.1675424426794052,
      -0.26390424370765686,
      0.13817864656448364,
      -0.01740562915802002,
      0.02398367039859295,
      -0.44439050555229187,
      -0.059655457735061646,
      0.31346359848976135,
      0.09546723961830139,
      -0.11515019088983536,
      -0.19425621628761292,
      -0.06093454360961914,
      0.026966581121087074,
      -0.12400399893522263,
      -0.04433104768395424,
      -0.03373828902840614
    ],
    [
      0.2255030870437622,
      -0.35176321864128113,
      -0.2556052803993225,
      -0.06042204797267914,
      -0.2754184603691101,
      -0.6365008354187012,
      0.2882031500339508,
      0.1670486032962799,
      0.17966033518314362,
      0.0955834686756134,
      0.035311225801706314,
      0.03214121609926224,
      0.19564493000507355,
      0.3591078519821167,
      -0.24105411767959595,
      0.133358433842659
    ],
    [
      -0.2598811388015747,
      0.316445529460907,
      0.03818328306078911,
      -0.277817964553833,
      -0.0904763713479042,
      0.1082584485411644,
      -0.4597656726837158,
      -0.11094801872968674,
      0.20430634915828705,
      0.06765109300613403,
      0.2757289409637451,
      -0.11913051456212997,
      -0.5533958077430725,
      0.4303595721721649,
      0.02940460853278637,
      0.292221337556839
    ],
    [
      0.29522809386253357,
      -0.3734357953071594,
      0.18874680995941162,
      -0.2484292984008789,
      -0.060483939945697784,
      -0.06515456736087799,
      -0.4633071720600128,
      0.3826041519641876,
      0.1691262125968933,
      0.32476481795310974,
      -0.1966303437948227,
      0.12355924397706985,
      -0.3257858157157898,
      0.30331385135650635,
      0.08470790088176727,
      0.32357844710350037
    ],
    [
      0.09552940726280212,
      -0.16247232258319855,
      0.1453390121459961,
      0.5820348262786865,
      0.39430996775627136,
      -0.6664168834686279,
      -0.05767830088734627,
      -0.35670164227485657,
      0.21724113821983337,
      0.2874707877635956,
      0.13904207944869995,
      0.24004828929901123,
      -0.010410364717245102,
      0.11243946105241776,
      -0.09975358098745346,
      0.48023274540901184
    ],
    [
      0.23459917306900024,
      0.4143681526184082,
      -0.001475463854148984,
      -0.07397300750017166,
      -0.34473633766174316,
      -0.017176121473312378,
      -0.3207647502422333,
      0.06814903020858765,
      0.0735364556312561,
      0.23675408959388733,
      -0.46060898900032043,
      -0.04283430427312851,
      0.4270288050174713,
      -0.3760288953781128,
      -0.1709088236093521,
      -0.7453159689903259
    ],
    [
      -0.3751903474330902,
      -0.5401062965393066,
      -0.05543746054172516,
      0.1726781278848648,
      0.22372223436832428,
      0.12082844972610474,
      -0.04679834097623825,
      0.3753291368484497,
      0.20383809506893158,
      -0.3562852740287781,
      0.0475914441049099,
      0.08387911319732666,
      -0.5030596852302551,
      0.0920310840010643,
      0.019299903884530067,
      0.06039430573582649
    ],
    [
      -0.027624143287539482,
      0.1390141397714615,
      -0.019714366644620895,
      -0.29626718163490295,
      -0.0867115929722786,
      -0.005347238387912512,
      -0.08186110854148865,
      -0.0719415470957756,
      -0.08260104805231094,
      -0.02688767947256565,
      -0.050981950014829636,
      -0.000888289709109813,
      0.06370097398757935,
      -0.09362483769655228,
      -0.04905756562948227,
      -0.17457836866378784
    ],
    [
      -0.05835045874118805,
      -0.17156077921390533,
      -0.04045867174863815,
      0.1705663651227951,
      0.3537174165248871,
      -0.0814376249909401,
      0.11106543242931366,
      0.03569059073925018,
      -0.054170794785022736,
      0.0006891858065500855,
      0.15497887134552002,
      0.024640899151563644,
      -0.021918047219514847,
      0.13641254603862762,
      -0.034836623817682266,
      0.16900862753391266
    ],
    [
      0.015705233439803123,
      -0.6830602288246155,
      0.1416582316160202,
      -0.34349605441093445,
      -0.19933144748210907,
      -0.1941627562046051,
      0.07073480635881424,
      0.22476260364055634,
      -0.05821354314684868,
      0.19870521128177643,
      -0.3633080720901489,
      -0.6094179749488831,
      -0.014389538206160069,
      -0.05187155306339264,
      0.008232510648667812,
      -0.07416337728500366
    ],
    [
      0.02744930610060692,
      0.004155698698014021,
      -0.009431034326553345,
      0.018627502024173737,
      -0.038125861436128616,
      -0.04958206042647362,
      -0.0011498493840917945,
      -0.06594818830490112,
      -0.06050943583250046,
      -0.012223275378346443,
      0.05075416713953018,
      0.002875035861507058,
      -0.030966928228735924,
      0.03150903806090355,
      -0.03930797800421715,
      -0.0073625799268484116
    ],
    [
      0.029172860085964203,
      0.019140103831887245,
      0.006333501078188419,
      -0.0010180885437875986,
      -0.058474764227867126,
      -0.001499299076385796,
      -0.03998291492462158,
      0.0006900931475684047,
      -0.025132006034255028,
      0.07824363559484482,
      0.024710139259696007,
      0.04224177077412605,
      0.0186353400349617,
      -0.02513793483376503,
      -0.0675835832953453,
      0.03853016719222069
    ],
    [
      -0.10422031581401825,
      -0.04142181575298309,
      0.09627147763967514,
      -0.1839519888162613,
      0.054043687880039215,
      0.3674282431602478,
      0.06575734913349152,
      0.2526622414588928,
      0.031184710562229156,
      -0.05107143893837929,
      0.10413102805614471,
      0.014182362705469131,
      0.053825926035642624,
      -0.036670293658971786,
      -0.11154938489198685,
      0.10094700008630753
    ]
  ],
  "1_weights": [
    [
      0.5989769101142883,
      -0.09589226543903351,
      -0.7655353546142578,
      -0.8263567686080933,
      0.4663982391357422,
      0.5042397379875183,
      -0.09257758408784866,
      0.551364541053772,
      -0.9510312080383301,
      0.3488251268863678,
      -0.39920520782470703,
      -0.04326885566115379,
      -0.08425049483776093,
      -1.1530144214630127,
      -2.587334632873535,
      0.32429733872413635
    ],
    [
      -0.10568727552890778,
      -0.3941859304904938,
      0.845159113407135,
      -0.12228727340698242,
      1.3359907865524292,
      -0.10073960572481155,
      0.09613849967718124,
      -0.14018167555332184,
      0.10176507383584976,
      0.224240243434906,
      0.3236481547355652,
      0.5867676138877869,
      -0.2600763738155365,
      0.08831733465194702,
      -1.0230354070663452,
      -0.9607785940170288
    ],
    [
      -0.975182831287384,
      -0.03713181987404823,
      0.46132534742355347,
      0.19726461172103882,
      -0.6018275618553162,
      0.18375276029109955,
      -0.7672815918922424,
      0.40902379155158997,
      -0.549452543258667,
      0.21514590084552765,
      0.27225804328918457,
      -0.9166373014450073,
      -0.4906386137008667,
      -1.0068660974502563,
      0.9625212550163269,
      0.9613115787506104
    ],
    [
      -0.29563915729522705,
      0.05073869973421097,
      -4.834764003753662,
      0.3672950565814972,
      0.20301271975040436,
      -0.5744943022727966,
      -0.7491274476051331,
      -0.30144187808036804,
      1.1394201517105103,
      -0.1231108158826828,
      -0.06359708309173584,
      0.23432615399360657,
      -0.3030943274497986,
      0.27765873074531555,
      -0.7709234952926636,
      -0.16543543338775635
    ],
    [
      0.7366592884063721,
      -0.2086123824119568,
      -0.3601701259613037,
      -0.04593757539987564,
      -0.7801651954650879,
      -0.05878268554806709,
      -0.5835531949996948,
      -0.1545916646718979,
      -1.527028203010559,
      -0.020389987155795097,
      -0.16783905029296875,
      0.022124959155917168,
      -0.08678779751062393,
      0.6137964129447937,
      0.023519882932305336,
      0.7204114198684692
    ],
    [
      -0.3241017162799835,
      -0.013322059065103531,
      -1.6445069313049316,
      0.7330607175827026,
      0.4513344466686249,
      0.35794422030448914,
      -0.026315292343497276,
      -1.268211841583252,
      0.4456867575645447,
      0.3406739830970764,
      -0.42042315006256104,
      -1.4536052942276,
      -0.08754895627498627,
      -1.1151286363601685,
      -1.4378314018249512,
      -2.4053399562835693
    ],
    [
      0.05809994786977768,
      -0.5856545567512512,
      -0.0794234499335289,
      0.3625861704349518,
      0.5165210962295532,
      0.14607390761375427,
      0.10757927596569061,
      0.021448234096169472,
      0.5536808371543884,
      0.12536032497882843,
      0.3405693769454956,
      -0.8041810989379883,
      -0.5259644389152527,
      0.6683685183525085,
      -0.33061835169792175,
      -1.2366529703140259
    ],
    [
      -0.6490800380706787,
      0.24428939819335938,
      0.286364883184433,
      -0.20567230880260468,
      0.3734329640865326,
      -0.3093157410621643,
      0.5073351860046387,
      -0.3678814768791199,
      -0.23532633483409882,
      0.17945751547813416,
      0.7828386425971985,
      0.023909593001008034,
      -0.11129172891378403,
      -0.0005824008258059621,
      0.679852306842804,
      0.7462214827537537
    ],
    [
      0.6892083883285522,
      0.08312831073999405,
      -0.6946248412132263,
      -0.18410082161426544,
      0.18993735313415527,
      -0.09477479010820389,
      0.3602713644504547,
      0.22798921167850494,
      0.1954725980758667,
      -0.18543696403503418,
      -0.6798798441886902,
      1.1908539533615112,
      0.09244991093873978,
      0.690336287021637,
      -0.7502318620681763,
      -0.04798402637243271
    ],
    [
      1.087844729423523,
      0.10873480141162872,
      -0.2939113974571228,
      -0.24802634119987488,
      0.039633993059396744,
      -0.33363258838653564,
      0.7085497379302979,
      1.4855456352233887,
      0.36285293102264404,
      -0.12933635711669922,
      -0.5870854258537292,
      0.0014907350996509194,
      0.0895351991057396,
      0.9716724157333374,
      -1.8901968002319336,
      -0.34662961959838867
    ],
    [
      -0.07631984353065491,
      -0.3924989402294159,
      0.9482505917549133,
      -0.26396021246910095,
      0.17413705587387085,
      -0.7623923420906067,
      0.49571117758750916,
      -1.2197041511535645,
      -0.38345393538475037,
      0.5415069460868835,
      0.4233153164386749,
      -0.360334187746048,
      0.1627286970615387,
      -0.6222471594810486,
      0.1964905858039856,
      -0.375914990901947
    ],
    [
      -0.10196718573570251,
      -0.004935349803417921,
      -0.5510753393173218,
      -0.289181649684906,
      -0.2569468021392822,
      0.3470722734928131,
      0.6394892930984497,
      -0.6406947374343872,
      0.3027300536632538,
      -0.07993673533201218,
      -0.005700522568076849,
      -0.48407185077667236,
      -0.5985994935035706,
      -0.37747833132743835,
      -0.18158575892448425,
      -0.48499569296836853
    ],
    [
      0.06443409621715546,
      0.23591825366020203,
      -0.6331095099449158,
      0.23201903700828552,
      -0.7548016905784607,
      0.6965956091880798,
      -1.2550424337387085,
      0.1367242932319641,
      -1.2918421030044556,
      -0.15067237615585327,
      0.45134294033050537,
      -0.24453102052211761,
      0.5243278741836548,
      -0.44893553853034973,
      0.882594883441925,
      0.6247318387031555
    ],
    [
      0.30787551403045654,
      0.35363104939460754,
      -0.1449260264635086,
      0.0024543169420212507,
      0.5469412803649902,
      0.5495221614837646,
      -0.6148753762245178,
      0.14181093871593475,
      0.015370926819741726,
      -0.5375497937202454,
      -0.4015260934829712,
      0.6918603181838989,
      0.6829661130905151,
      0.13340750336647034,
      -0.2480597198009491,
      0.11807718873023987
    ],
    [
      0.021933894604444504,
      -0.25117018818855286,
      -0.11429829150438309,
      -0.00796703714877367,
      -0.451325923204422,
      -0.13766980171203613,
      0.5712510943412781,
      -0.4703866243362427,
      -0.11089829355478287,
      0.46333202719688416,
      0.6746618151664734,
      -1.3566055297851562,
      0.0633089616894722,
      -1.055444359779358,
      0.09370531141757965,
      -0.13383467495441437
    ],
    [
      -0.7840028405189514,
      -0.12317521125078201,
      0.9150215983390808,
      -0.2628004550933838,
      -0.0805102214217186,
      0.5460848212242126,
      0.22611799836158752,
      -0.6469574570655823,
      -0.44095781445503235,
      0.09984000027179718,
      -0.43028324842453003,
      -0.44705668091773987,
      -0.03906591981649399,
      0.0659373551607132,
      -0.3293702304363251,
      -0.3483826816082001
    ]
  ],
  "2_weights": [
    [
      -0.44648078083992004,
      -0.45443856716156006,
      -0.4292081296443939
    ],
    [
      -0.05658567696809769,
      0.03998222202062607,
      0.18750478327274323
    ],
    [
      0.4285588264465332,
      0.5506983995437622,
      0.5437326431274414
    ],
    [
      0.055508311837911606,
      0.4197564423084259,
      -0.9416666626930237
    ],
    [
      -0.26505738496780396,
      -0.28795111179351807,
      -0.30387985706329346
    ],
    [
      -0.41105031967163086,
      -0.47215738892555237,
      -0.5110767483711243
    ],
    [
      0.6562691926956177,
      0.6623307466506958,
      0.6384903192520142
    ],
    [
      0.6735346913337708,
      0.6698974967002869,
      0.664122998714447
    ],
    [
      -0.430105984210968,
      -0.4866178035736084,
      -0.5163488388061523
    ],
    [
      -0.514331042766571,
      0.20979411900043488,
      0.21984143555164337
    ],
    [
      -0.6176723837852478,
      -0.6879847645759583,
      -0.6836987733840942
    ],
    [
      0.5346616506576538,
      0.5721708536148071,
      0.6072365641593933
    ],
    [
      0.4745820164680481,
      0.5691694617271423,
      0.6365177035331726
    ],
    [
      -0.558951199054718,
      -0.6153891682624817,
      -0.5718674659729004
    ],
    [
      0.26098567247390747,
      0.41466033458709717,
      0.40999725461006165
    ],
    [
      0.4239698052406311,
      0.524355947971344,
      0.548872709274292
    ]
  ],
  "0_bias": [
    -0.008789903484284878,
    -0.048477157950401306,
    0.15698328614234924,
    0.05124858766794205,
    -0.053648270666599274,
    -0.24867475032806396,
    -0.0726889967918396,
    0.18862685561180115,
    -0.12150494009256363,
    0.08704014122486115,
    0.001427721232175827,
    0.14561356604099274,
    -0.17590469121932983,
    0.059895433485507965,
    -0.002403874648734927,
    -0.04995051026344299
  ],
  "1_bias": [
    -0.004075448960065842,
    0.16200262308120728,
    -0.7132776975631714,
    -0.11543627828359604,
    -0.054489776492118835,
    -0.016979115083813667,
    0.017719855532050133,
    -0.11703772097826004,
    0.02131427265703678,
    0.06294003129005432,
    0.01634201593697071,
    0.1210789680480957,
    -0.7574964761734009,
    0.3213416039943695,
    -0.0041370396502316,
    -0.4101368486881256
  ],
  "2_bias": [
    0.09566518664360046,
    -0.00046807265607640147,
    -0.08971334993839264
  ]
}