{"triplane_resolution": 4096, "triplane_voxel_size": 0.0009765625, "sparse_grid_resolution": 1024, "sparse_grid_voxel_size": 0.00390625, "range_features": [-7.0, 7.0], "range_density": [-14.0, 14.0], "data_block_size": 16, "atlas_width": 1785, "atlas_height": 850, "atlas_depth": 17, "num_slices": 17, "slice_depth": 1, "0_weights": [[-4.182944297790527, 0.12255937606096268, -0.002417684067040682, -1.4016096591949463, -0.4501764476299286, 3.0209994316101074, 1.1759330034255981, -0.28265416622161865, 2.5223958492279053, 2.899202823638916, 0.2545503079891205, 1.9244136810302734, -1.2964621782302856, -1.3252779245376587, 0.8941047787666321, -1.418859839439392], [3.8354780673980713, 0.21535606682300568, -0.05815302953124046, 1.5113248825073242, 5.8464789390563965, 0.3084075450897217, 3.782463550567627, -0.2491653710603714, -3.306548833847046, -1.766019582748413, 2.7794063091278076, -3.365490436553955, 2.920388698577881, 3.0649752616882324, -0.7246954441070557, 7.285870552062988], [9.25041675567627, -0.13382714986801147, 0.27599436044692993, -0.7340049743652344, 2.765160083770752, -6.04064416885376, -2.7038087844848633, -0.29776644706726074, -3.946852207183838, 0.6177595853805542, -3.479884386062622, 3.0543384552001953, 7.306128978729248, -1.4252194166183472, -3.0640714168548584, 11.631197929382324], [-0.48328495025634766, 0.2100069671869278, -0.44118091464042664, -0.6278936862945557, 0.8236914277076721, 0.6231870055198669, -1.2320539951324463, 0.09448584169149399, 0.3891218900680542, -0.28825849294662476, 1.0033048391342163, 1.5221983194351196, 0.8083168268203735, 1.444846510887146, 2.018599271774292, 1.2893236875534058], [0.29056447744369507, -0.2389470487833023, 0.07755549997091293, -1.7980378866195679, 0.218624085187912, -2.332014560699463, 0.5757963061332703, -0.4734404981136322, -0.46825337409973145, -1.6093699932098389, 1.388411521911621, 0.13825656473636627, 0.4693678021430969, 0.24799709022045135, 0.8005512952804565, 1.7012535333633423], [1.0424107313156128, -0.007951673120260239, 0.1634027063846588, -0.3757935166358948, -0.10509368032217026, 0.8554883003234863, 0.139220729470253, -0.313241571187973, -0.30397725105285645, 0.43958744406700134, 0.19081702828407288, 1.3985248804092407, 1.2302261590957642, 1.1437467336654663, -0.06282343715429306, 0.15728984773159027], [0.0976022332906723, 0.12350637465715408, -0.4209307134151459, 0.9343339800834656, 0.8493313789367676, -1.8142530918121338, 0.5827942490577698, 0.09125202894210815, 0.1253117471933365, -1.3941713571548462, -1.7304097414016724, -0.015250797383487225, -0.027472462505102158, -0.2848072052001953, 0.5375651717185974, -1.1823855638504028], [-0.19032107293605804, 0.29685795307159424, -0.0890025645494461, 0.29976746439933777, 0.28021228313446045, 0.10814710706472397, -0.19105525314807892, -0.31539615988731384, 0.17594584822654724, -0.12574723362922668, 0.184994637966156, 0.03650103509426117, 0.024694882333278656, 0.2707633674144745, 0.020937804132699966, 0.17833943665027618], [0.26636508107185364, 0.10697195678949356, 0.3532615005970001, -0.09160682559013367, -9.064148616744205e-05, -0.0858321413397789, -0.27634745836257935, 0.10538296401500702, -0.24700231850147247, 0.23488269746303558, 0.11103428900241852, 0.36444947123527527, -0.16214492917060852, 0.10708671808242798, 0.17631381750106812, 0.07576370984315872], [0.35033485293388367, 0.37275591492652893, 0.23360277712345123, -0.029039200395345688, 0.28945454955101013, 0.019321085885167122, 0.0532083734869957, 0.403310626745224, 0.4427884817123413, -0.26045024394989014, 0.6626871824264526, -0.4376438558101654, -0.05023409426212311, -0.35983896255493164, -0.0498906709253788, -0.1878485381603241], [0.09991669654846191, -0.22061896324157715, -0.32861635088920593, -0.038288529962301254, -0.3402714133262634, -0.10132167488336563, -0.1653616726398468, -0.039629895240068436, -0.2201586663722992, 0.46373915672302246, 0.3572079837322235, 0.05443662405014038, -0.2040325254201889, -0.34656527638435364, -0.019709715619683266, -0.31546512246131897], [-0.23468495905399323, 0.023559216409921646, -0.31002214550971985, 0.17169320583343506, 0.4028235971927643, 0.08960270881652832, -0.064083993434906, -0.21613383293151855, 0.18099674582481384, -0.2540166676044464, -0.16452816128730774, -0.24108220636844635, 0.23162926733493805, 0.07655684649944305, 0.1288929134607315, -0.009659824892878532], [-0.3430892527103424, 0.27151963114738464, 0.15779930353164673, -0.43865373730659485, -0.3032839596271515, -0.39964327216148376, 0.2632787823677063, 0.22060275077819824, 0.07857511192560196, 0.03440040722489357, 0.7388716340065002, -0.18659177422523499, 0.5272031426429749, 0.09987522661685944, 0.2910969853401184, 0.4521753191947937], [0.097283273935318, -0.10108602792024612, 0.32370105385780334, -0.1969902068376541, 0.021917223930358887, -5.647332363878377e-05, 0.2070535123348236, 0.255352258682251, 0.009588528424501419, -0.22711554169654846, -0.4157288670539856, -0.0683976337313652, 0.1247619166970253, 0.030275151133537292, -0.028169266879558563, 0.04335663840174675], [-0.023248841986060143, 0.17818309366703033, 0.09619505703449249, -0.056710563600063324, -0.2586575746536255, 0.00012483687896747142, 0.29449930787086487, -0.003169664181768894, 0.05284012109041214, 0.01569637656211853, -0.08007410913705826, -0.11696725338697433, -0.060043815523386, -0.14188408851623535, -0.3124389052391052, -0.08649679273366928], [0.3514999747276306, 0.2318057417869568, 0.16179852187633514, -0.2238195687532425, -0.010612579062581062, -0.048775073140859604, -0.0575409010052681, 0.2412375956773758, 0.2866385877132416, -0.2985896170139313, 0.06367768347263336, -0.213082954287529, 0.06304698437452316, -0.1031622588634491, 0.3800690472126007, 0.40923234820365906], [-0.016986530274152756, -0.24815228581428528, 0.02301502414047718, 0.05197900906205177, 0.0016011252300813794, 0.002450553933158517, -0.07290282845497131, -0.28207945823669434, 0.007766097784042358, 0.04168377444148064, 0.08541470766067505, 0.01727001741528511, -0.02987542748451233, 0.010393090546131134, 0.01345719862729311, 0.012854255735874176], [0.013197725638747215, 0.23661985993385315, -0.2747862935066223, 0.006158123258501291, 0.05143982917070389, -0.0019369116052985191, -0.00874581839889288, -0.0566905215382576, -0.01412913203239441, 0.006581876426935196, 0.029640382155776024, 0.026296189054846764, 0.0015232099685817957, 0.022946566343307495, 0.06545324623584747, 0.01718784123659134], [0.07592964917421341, 0.34057220816612244, 0.26763299107551575, -0.2316296547651291, -0.13346438109874725, -0.009229885414242744, -0.4987023174762726, 0.3630690276622772, 0.35510724782943726, -0.1763184368610382, 0.13770952820777893, -0.30333083868026733, -0.21781779825687408, -0.1365673840045929, 0.25517386198043823, 0.28354746103286743], [0.0022393325343728065, -0.26385262608528137, 0.05804651603102684, -0.011187959462404251, 0.0022531624417752028, 0.003245521569624543, -0.004487993661314249, 0.20745150744915009, -0.005526209715753794, -0.008265195414423943, -0.01553376019001007, -0.002310722367838025, 0.007028502412140369, -0.0005893415072932839, 0.001791787100955844, -0.008994853124022484], [-0.001729232375510037, 0.07632354646921158, -0.26913750171661377, -0.004260281100869179, -0.006002747919410467, 0.002600256586447358, 0.00856045726686716, 0.2536095976829529, 0.005932237487286329, 0.0012945208000019193, -0.0038826039526611567, -0.004356930032372475, -0.004173715133219957, -0.000713191635441035, -0.0041394224390387535, 0.0019452673150226474], [0.04767297953367233, 0.013211826793849468, 0.3048780560493469, -0.027971195057034492, -0.05524192377924919, -0.05796124413609505, -0.48221302032470703, 0.12349309772253036, 0.06685253977775574, 0.06329911947250366, 0.2749486565589905, -0.17439624667167664, 0.008924962021410465, -0.12032105028629303, 0.2627924680709839, 0.06409785151481628], [0.16022570431232452, -0.34547674655914307, -0.49747538566589355, 0.14438748359680176, -0.461709201335907, -0.2876526117324829, 0.2091565877199173, -0.036161769181489944, 0.13134782016277313, 0.2331160008907318, -0.0948290303349495, -0.12357614934444427, 0.18244382739067078, 0.2094140350818634, -0.32603853940963745, -0.24130871891975403], [-0.3246951103210449, 0.20838096737861633, -0.2350674867630005, 0.04556446149945259, -0.14428821206092834, 0.32041269540786743, -0.3969730734825134, -0.45054417848587036, 0.15288977324962616, 0.22370533645153046, 0.2625557482242584, -0.21898508071899414, -0.588981032371521, 0.33460134267807007, -0.0291781947016716, 0.1334863305091858], [0.21646466851234436, -0.41052329540252686, -0.0402136854827404, 0.034515734761953354, -0.18720586597919464, 0.12713438272476196, -0.42479032278060913, 0.05895101651549339, 0.10707024484872818, 0.4307624101638794, -0.2314814031124115, -0.014241822995245457, -0.34313398599624634, 0.1198842003941536, 0.0004967038403265178, -0.0005080474074929953], [0.1019512414932251, 0.02067519910633564, -0.0828332006931305, 0.5321174263954163, 0.07423847913742065, 0.22574754059314728, -0.43215280771255493, -0.1006137952208519, 0.18355165421962738, 0.4865429401397705, -0.2934752106666565, 0.06634194403886795, -0.009387154132127762, -0.12861572206020355, -0.1230633407831192, -0.10303273797035217], [0.25780484080314636, 0.009879504330456257, -0.3416053354740143, 0.6225658655166626, -0.06694101542234421, -0.025506941601634026, 0.09074468910694122, -0.3169982135295868, 0.12425662577152252, 0.503506600856781, -0.2436233013868332, 0.07899710536003113, 0.2756185233592987, -0.20054496824741364, -0.1563016176223755, -0.26063740253448486], [-0.44935429096221924, -0.3585160970687866, -0.1967557817697525, 0.490355908870697, 0.07848663628101349, 0.1295255869626999, 0.08527979254722595, -0.06257706135511398, 0.1421516090631485, -0.34652426838874817, 0.1010451540350914, -0.07884591817855835, -0.54006427526474, -0.12355340272188187, -0.07388477027416229, -0.5759013891220093], [-0.014735780656337738, -0.09685109555721283, 0.2585637867450714, -0.048375584185123444, 0.001915537053719163, -0.021055830642580986, 0.16374118626117706, 0.04670172557234764, -0.03763985633850098, -0.05295730382204056, 0.07225007563829422, -0.015504185110330582, 0.006125858053565025, 0.00318468501791358, 0.05318450555205345, -0.0024995682761073112], [-0.016146931797266006, 0.05964777246117592, 0.22641973197460175, -0.0825779139995575, 0.015289864502847195, 0.013778334483504295, -0.09349139034748077, 0.42472946643829346, -0.008051364682614803, -0.05901211127638817, -0.022888151928782463, -0.00458842096850276, -0.025527095422148705, 0.025517461821436882, 0.00776695366948843, 0.028790360316634178], [-0.01456498447805643, -0.11101839691400528, 0.34906908869743347, 0.18427355587482452, -0.5479263067245483, -0.3025001287460327, 0.0999450758099556, 0.07399825006723404, -0.19530309736728668, 0.35025328397750854, 0.8605102896690369, -0.6964977383613586, -0.1664533168077469, -0.6475045680999756, 0.3135610818862915, -0.2616753876209259], [0.0015523858601227403, 0.06688648462295532, -0.16172482073307037, -0.0001970955781871453, -0.006209969986230135, 0.005312750115990639, -0.005764489993453026, 0.053157877177000046, 0.003092968836426735, 0.0011645308695733547, -0.0006568064563907683, -0.0012805075384676456, -0.005454737227410078, -0.0004997855285182595, -0.020227210596203804, 0.006906365510076284], [-0.001643253373913467, 0.10669758170843124, 0.16454271972179413, 0.004082701168954372, 0.0013712160289287567, 0.0022976852487772703, 0.023507757112383842, -0.08361154794692993, -0.0027153969276696444, 0.006349125411361456, -0.00016245908045675606, -0.0034969032276421785, 0.00025278283283114433, -0.0023809124249964952, 0.004490439780056477, 0.0016764765605330467], [-0.06681989878416061, 0.05056195706129074, 0.39397966861724854, 0.059756338596343994, 0.004724686965346336, -0.05684369429945946, 0.050473909825086594, 0.2617075443267822, -0.10075739771127701, 0.024174580350518227, 0.13710783421993256, -0.11979173868894577, 0.031057685613632202, -0.13409723341464996, -0.04716790094971657, -0.15312635898590088]], "1_weights": [[-0.2660764455795288, -0.1364128291606903, 0.7485624551773071, -0.2775261402130127, -1.5455039739608765, 0.23541894555091858, -0.1584826409816742, -2.9289259910583496, -0.5331562757492065, -0.2414899319410324, -0.846196174621582, -0.027190707623958588, -0.4573765993118286, 1.0192396640777588, -0.25637364387512207, 0.136150524020195], [0.2577853798866272, -0.5472150444984436, -0.21746942400932312, -0.3558344542980194, 0.4249252378940582, -0.2529457211494446, -0.5385378003120422, -0.3647472858428955, -0.22036592662334442, -0.4352644681930542, -0.04609876498579979, 0.5486393570899963, 0.015705034136772156, 0.02344336360692978, -0.21032743155956268, -0.060832273215055466], [-0.6549415588378906, -0.2451794594526291, 0.3109784722328186, 0.02032201737165451, -0.4846765995025635, 0.06896135956048965, -0.043441664427518845, 0.5329990386962891, -0.5187849998474121, 0.31053265929222107, 0.3093731105327606, -0.3186433017253876, -0.3686574399471283, -0.3965107500553131, 0.39637333154678345, 0.36244499683380127], [-1.108324408531189, -0.0950671061873436, 0.44010213017463684, -0.04803074523806572, -0.19066129624843597, 0.09564772993326187, -0.15932348370552063, 0.31205204129219055, -0.30069485306739807, -0.33907440304756165, -0.16077961027622223, -0.5646087527275085, 0.01498070452362299, -0.22443503141403198, 0.15453794598579407, -0.6600593328475952], [-0.25152677297592163, -0.4194880723953247, -0.3255419433116913, -0.024833332747220993, -0.2197188436985016, 0.26831984519958496, -0.17585498094558716, 0.9099603891372681, -0.44126492738723755, 0.06379126757383347, -0.3924369513988495, 0.12210409343242645, -0.2403811812400818, -0.1036098450422287, 0.2246417999267578, 0.23289267718791962], [-1.1938912868499756, -0.7332878708839417, -0.16860903799533844, 0.27167537808418274, -0.6234462857246399, -1.0223368406295776, -0.0055001568980515, 0.031067270785570145, -0.3016166687011719, -0.501258373260498, -0.3205208480358124, -0.4501609206199646, -0.2022850066423416, 0.5331346392631531, -0.31553247570991516, -0.09236856549978256], [0.011390640400350094, 0.1741510033607483, -0.16870959103107452, 0.26980704069137573, -0.12689465284347534, -0.00021635937446262687, -0.004871883429586887, -0.0024798845406621695, -0.022913727909326553, -0.3613104224205017, 0.0335443839430809, -0.5596155524253845, -0.5477572679519653, -0.10146099328994751, 0.44526177644729614, -0.19207602739334106], [0.4786823093891144, -0.14819543063640594, 0.40016797184944153, 0.2662248909473419, 0.2005232572555542, -0.0734550952911377, 0.088628850877285, 0.09597437083721161, 0.5866583585739136, -0.41593530774116516, 0.06799140572547913, 0.4147145748138428, -0.4619539976119995, 0.2506057024002075, 0.4645612835884094, 0.07818664610385895], [0.6430632472038269, 0.4301016330718994, 0.5687482953071594, -0.20499341189861298, -1.5830357074737549, -0.057475194334983826, -0.04761466011404991, 0.15757563710212708, 0.4694902300834656, -0.31945985555648804, 0.5281838178634644, -0.05682651698589325, -0.15940551459789276, -0.6822737455368042, -0.4803343713283539, 0.21194779872894287], [0.4950557053089142, 0.1288907825946808, 0.2200743705034256, -0.6676316857337952, 1.094002366065979, -0.06548916548490524, 0.17262978851795197, 0.782573401927948, -0.6219182014465332, -0.047629643231630325, -0.007879762910306454, -0.04403572902083397, 0.11086232960224152, 0.9870592951774597, 0.14050504565238953, -0.08290879428386688], [0.05170230567455292, 0.09232775121927261, 0.5609861016273499, -0.4658115804195404, 0.10510024428367615, -0.39010941982269287, 0.08303208649158478, 0.7287164926528931, 0.34640881419181824, 0.4467340111732483, -0.0664614662528038, 0.125449076294899, -0.04073641821742058, -0.14034487307071686, -0.3833089768886566, -0.36087387800216675], [0.3243415653705597, 0.2813890278339386, -0.7010526657104492, -0.9154619574546814, -0.21268899738788605, 0.2618084251880646, 0.7835307717323303, -0.5577873587608337, 0.44534265995025635, -0.4068753719329834, 0.7512428760528564, -0.7214436531066895, -0.7056722044944763, -0.24105918407440186, -0.02603769302368164, -0.3592735528945923], [-0.47042790055274963, 0.3675990700721741, 0.8545722961425781, -0.07233882695436478, 0.4913274049758911, 0.604767918586731, 0.09361371397972107, 0.07124380767345428, -0.7648518085479736, -0.5989322662353516, 0.08830621093511581, -0.5639217495918274, 0.16881127655506134, 0.7389059066772461, 0.36194881796836853, 0.1926586627960205], [0.10138525813817978, 0.17115308344364166, -0.18458406627178192, -0.11598498374223709, 0.5326888561248779, 0.4606020450592041, -0.9361098408699036, 0.39831697940826416, 0.28341448307037354, -0.6414264440536499, -0.6915782690048218, 0.4410674273967743, 0.21044927835464478, -0.6268237829208374, -0.5809491276741028, -0.017938265576958656], [0.05982726067304611, 0.18008077144622803, 0.8736864924430847, -0.8836468458175659, 0.010195989161729813, 0.06635645776987076, -0.10905439406633377, -4.561532974243164, -0.16419538855552673, -0.14853321015834808, 0.37713423371315, -0.3390066623687744, -0.7124320268630981, -0.026848549023270607, 0.388691782951355, -0.47721943259239197], [-0.8101750016212463, 0.1215277761220932, 0.11182097345590591, -0.397126168012619, -1.771934151649475, 0.8481440544128418, 0.005445259623229504, 1.595322847366333, -0.9745508432388306, 0.1090669110417366, -0.6356830596923828, -0.4715716242790222, -0.2011004537343979, -1.3318411111831665, -0.4692193269729614, -0.29937446117401123]], "2_weights": [[-0.21831220388412476, -0.23510578274726868, -0.2129102349281311], [-0.31534114480018616, -0.221110001206398, 0.047394294291734695], [0.17316776514053345, 0.17366081476211548, 0.17455407977104187], [0.1778239607810974, 0.29636120796203613, -0.3315005302429199], [0.42886316776275635, 0.3724603056907654, 0.33890920877456665], [-0.32610467076301575, -0.3643357753753662, -0.5236510038375854], [-0.5839534997940063, 0.4151689112186432, 0.21502603590488434], [-1.064763069152832, -0.7400888800621033, -0.08550415933132172], [-0.11161062866449356, -0.10667099058628082, -0.18417277932167053], [-0.39545372128486633, 0.10880708694458008, 0.5279830694198608], [-0.5455500483512878, -0.06530541926622391, -0.1243106871843338], [-0.1439269632101059, 0.06675183027982712, 0.2055172175168991], [-0.062013495713472366, 0.3634091019630432, 0.08958043903112411], [0.00857617799192667, 0.179899662733078, 0.3151187300682068], [-0.04797685146331787, -0.051560189574956894, -0.03738020360469818], [0.3297310471534729, 0.00468312157317996, 0.13975052535533905]], "0_bias": [-0.08080410957336426, -0.09543148428201675, -0.0898083820939064, 0.32320326566696167, -0.17897191643714905, -0.0006968058878555894, -0.06625406444072723, -0.10194962471723557, -0.17671290040016174, 0.21947552263736725, -0.05795558914542198, 0.012439412996172905, -0.19673438370227814, -0.08402829617261887, -0.07980306446552277, -0.3397543430328369], "1_bias": [0.5720158219337463, -0.004140215460211039, 0.1754228174686432, -0.295995831489563, -0.08369915187358856, -0.2467627227306366, 0.3576568067073822, -2.020305871963501, 0.08367308229207993, -0.14187264442443848, -0.6408173441886902, -0.15007507801055908, -0.33784249424934387, -0.5000789165496826, -0.17991402745246887, -0.19365034997463226], "2_bias": [0.10398896038532257, 0.01665732078254223, -0.02120000310242176]}